digraph Tree {
0 [label="Inflow <= 0.0331\nmse = 0.000545499078125\nsamples = 3608", shape="box"] ;
1 [label="Outflow(7day) <= 0.0145\nmse = 7.95794688961e-05\nsamples = 3317", shape="box"] ;
0 -> 1 ;
2 [label="Outflow(7day) <= 0.0055\nmse = 1.76446445649e-05\nsamples = 2900", shape="box"] ;
1 -> 2 ;
3 [label="Outflow(7day) <= 0.0025\nmse = 6.48032706774e-06\nsamples = 2168", shape="box"] ;
2 -> 3 ;
4 [label="Outflow(7day) <= 0.0008\nmse = 2.88024209868e-06\nsamples = 822", shape="box"] ;
3 -> 4 ;
5 [label="Inflow <= 0.0103\nmse = 8.1154381833e-07\nsamples = 480", shape="box"] ;
4 -> 5 ;
6 [label="mse = 0.0000\nsamples = 417\nOutflow = [ 0.0006056]", shape="box"] ;
5 -> 6 ;
7 [label="mse = 0.0000\nsamples = 63\nOutflow = [ 0.00121553]", shape="box"] ;
5 -> 7 ;
8 [label="Inflow(7dayForecast) <= 0.0171\nmse = 4.73241376028e-06\nsamples = 342", shape="box"] ;
4 -> 8 ;
9 [label="mse = 0.0000\nsamples = 320\nOutflow = [ 0.00178001]", shape="box"] ;
8 -> 9 ;
10 [label="mse = 0.0000\nsamples = 22\nOutflow = [ 0.00562592]", shape="box"] ;
8 -> 10 ;
11 [label="Inflow <= 0.0201\nmse = 4.56353330548e-06\nsamples = 1346", shape="box"] ;
3 -> 11 ;
12 [label="Storage <= 0.2918\nmse = 3.28217988541e-06\nsamples = 1333", shape="box"] ;
11 -> 12 ;
13 [label="mse = 0.0000\nsamples = 176\nOutflow = [ 0.00317082]", shape="box"] ;
12 -> 13 ;
14 [label="mse = 0.0000\nsamples = 1157\nOutflow = [ 0.00467393]", shape="box"] ;
12 -> 14 ;
15 [label="Outflow(21day) <= 0.0144\nmse = 9.38230018103e-05\nsamples = 13", shape="box"] ;
11 -> 15 ;
16 [label="mse = 0.0001\nsamples = 7\nOutflow = [ 0.01611385]", shape="box"] ;
15 -> 16 ;
17 [label="mse = 0.0000\nsamples = 6\nOutflow = [ 0.00502884]", shape="box"] ;
15 -> 17 ;
18 [label="Inflow <= 0.0171\nmse = 3.36775402197e-05\nsamples = 732", shape="box"] ;
2 -> 18 ;
19 [label="Outflow(7day) <= 0.0089\nmse = 1.20778557076e-05\nsamples = 650", shape="box"] ;
18 -> 19 ;
20 [label="Winter <= 0.5000\nmse = 6.87253413371e-06\nsamples = 458", shape="box"] ;
19 -> 20 ;
21 [label="mse = 0.0000\nsamples = 416\nOutflow = [ 0.00652968]", shape="box"] ;
20 -> 21 ;
22 [label="mse = 0.0000\nsamples = 42\nOutflow = [ 0.00298109]", shape="box"] ;
20 -> 22 ;
23 [label="Winter <= 0.5000\nmse = 2.01382873879e-05\nsamples = 192", shape="box"] ;
19 -> 23 ;
24 [label="mse = 0.0000\nsamples = 145\nOutflow = [ 0.00950589]", shape="box"] ;
23 -> 24 ;
25 [label="mse = 0.0000\nsamples = 47\nOutflow = [ 0.00617605]", shape="box"] ;
23 -> 25 ;
26 [label="Inflow(7day) <= 0.0328\nmse = 0.000115520722731\nsamples = 82", shape="box"] ;
18 -> 26 ;
27 [label="Outflow(21day) <= 0.0303\nmse = 7.13080487613e-05\nsamples = 77", shape="box"] ;
26 -> 27 ;
28 [label="mse = 0.0001\nsamples = 66\nOutflow = [ 0.01731945]", shape="box"] ;
27 -> 28 ;
29 [label="mse = 0.0000\nsamples = 11\nOutflow = [ 0.00513466]", shape="box"] ;
27 -> 29 ;
30 [label="mse = 0.0003\nsamples = 5\nOutflow = [ 0.03841336]", shape="box"] ;
26 -> 30 ;
31 [label="Inflow(7day) <= 0.0527\nmse = 0.000255037794333\nsamples = 417", shape="box"] ;
1 -> 31 ;
32 [label="Outflow(28day) <= 0.0100\nmse = 0.000172706497963\nsamples = 373", shape="box"] ;
31 -> 32 ;
33 [label="Inflow(7day) <= 0.0253\nmse = 0.00042555791095\nsamples = 32", shape="box"] ;
32 -> 33 ;
34 [label="Inflow(7day) <= 0.0166\nmse = 0.000153976518159\nsamples = 20", shape="box"] ;
33 -> 34 ;
35 [label="mse = 0.0000\nsamples = 5\nOutflow = [ 0.01068341]", shape="box"] ;
34 -> 35 ;
36 [label="mse = 0.0001\nsamples = 15\nOutflow = [ 0.02895104]", shape="box"] ;
34 -> 36 ;
37 [label="Outflow(7day) <= 0.0208\nmse = 0.000371834337809\nsamples = 12", shape="box"] ;
33 -> 37 ;
38 [label="mse = 0.0003\nsamples = 5\nOutflow = [ 0.04021325]", shape="box"] ;
37 -> 38 ;
39 [label="mse = 0.0003\nsamples = 7\nOutflow = [ 0.06187231]", shape="box"] ;
37 -> 39 ;
40 [label="Inflow(7dayForecast) <= 0.0208\nmse = 0.000123406324072\nsamples = 341", shape="box"] ;
32 -> 40 ;
41 [label="Inflow(14day) <= 0.0733\nmse = 7.73179584114e-05\nsamples = 235", shape="box"] ;
40 -> 41 ;
42 [label="mse = 0.0001\nsamples = 219\nOutflow = [ 0.01454059]", shape="box"] ;
41 -> 42 ;
43 [label="mse = 0.0002\nsamples = 16\nOutflow = [ 0.02656964]", shape="box"] ;
41 -> 43 ;
44 [label="Inflow(21day) <= 0.0411\nmse = 0.000183347829573\nsamples = 106", shape="box"] ;
40 -> 44 ;
45 [label="mse = 0.0002\nsamples = 76\nOutflow = [ 0.0261991]", shape="box"] ;
44 -> 45 ;
46 [label="mse = 0.0001\nsamples = 30\nOutflow = [ 0.01556042]", shape="box"] ;
44 -> 46 ;
47 [label="Outflow(7day) <= 0.0521\nmse = 0.000525392108971\nsamples = 44", shape="box"] ;
31 -> 47 ;
48 [label="mse = 0.0002\nsamples = 8\nOutflow = [ 0.06013561]", shape="box"] ;
47 -> 48 ;
49 [label="Storage <= 0.4479\nmse = 0.000502218128185\nsamples = 36", shape="box"] ;
47 -> 49 ;
50 [label="Outflow(7day) <= 0.0898\nmse = 0.000515328460552\nsamples = 23", shape="box"] ;
49 -> 50 ;
51 [label="mse = 0.0003\nsamples = 17\nOutflow = [ 0.03786774]", shape="box"] ;
50 -> 51 ;
52 [label="mse = 0.0004\nsamples = 6\nOutflow = [ 0.06920754]", shape="box"] ;
50 -> 52 ;
53 [label="Storage <= 0.6860\nmse = 7.09074464549e-05\nsamples = 13", shape="box"] ;
49 -> 53 ;
54 [label="mse = 0.0000\nsamples = 8\nOutflow = [ 0.0253386]", shape="box"] ;
53 -> 54 ;
55 [label="mse = 0.0000\nsamples = 5\nOutflow = [ 0.01345779]", shape="box"] ;
53 -> 55 ;
56 [label="Inflow(7day) <= 0.0785\nmse = 0.00257420977345\nsamples = 291", shape="box"] ;
0 -> 56 ;
57 [label="Inflow(7day) <= 0.0398\nmse = 0.00101982186531\nsamples = 228", shape="box"] ;
56 -> 57 ;
58 [label="Inflow(7day) <= 0.0161\nmse = 0.000647424990439\nsamples = 125", shape="box"] ;
57 -> 58 ;
59 [label="Storage <= 0.4514\nmse = 0.000218541770287\nsamples = 30", shape="box"] ;
58 -> 59 ;
60 [label="Inflow(7day) <= 0.0088\nmse = 0.000243234105984\nsamples = 16", shape="box"] ;
59 -> 60 ;
61 [label="mse = 0.0000\nsamples = 5\nOutflow = [ 0.0066585]", shape="box"] ;
60 -> 61 ;
62 [label="mse = 0.0002\nsamples = 11\nOutflow = [ 0.03009024]", shape="box"] ;
60 -> 62 ;
63 [label="Spring <= 0.5000\nmse = 3.06294302338e-05\nsamples = 14", shape="box"] ;
59 -> 63 ;
64 [label="mse = 0.0000\nsamples = 9\nOutflow = [ 0.00236182]", shape="box"] ;
63 -> 64 ;
65 [label="mse = 0.0000\nsamples = 5\nOutflow = [ 0.01104781]", shape="box"] ;
63 -> 65 ;
66 [label="Inflow <= 0.1021\nmse = 0.000620273002747\nsamples = 95", shape="box"] ;
58 -> 66 ;
67 [label="Outflow(28day) <= 0.0064\nmse = 0.000530533435099\nsamples = 82", shape="box"] ;
66 -> 67 ;
68 [label="mse = 0.0008\nsamples = 7\nOutflow = [ 0.06731852]", shape="box"] ;
67 -> 68 ;
69 [label="mse = 0.0004\nsamples = 75\nOutflow = [ 0.03332544]", shape="box"] ;
67 -> 69 ;
70 [label="Outflow(28day) <= 0.0151\nmse = 0.000255671570071\nsamples = 13", shape="box"] ;
66 -> 70 ;
71 [label="mse = 0.0001\nsamples = 6\nOutflow = [ 0.06022648]", shape="box"] ;
70 -> 71 ;
72 [label="mse = 0.0003\nsamples = 7\nOutflow = [ 0.07663743]", shape="box"] ;
70 -> 72 ;
73 [label="Storage <= 0.7790\nmse = 0.000936416012906\nsamples = 103", shape="box"] ;
57 -> 73 ;
74 [label="Inflow <= 0.1534\nmse = 0.000598482521144\nsamples = 98", shape="box"] ;
73 -> 74 ;
75 [label="Inflow <= 0.0555\nmse = 0.000432836531973\nsamples = 93", shape="box"] ;
74 -> 75 ;
76 [label="mse = 0.0003\nsamples = 52\nOutflow = [ 0.05413217]", shape="box"] ;
75 -> 76 ;
77 [label="mse = 0.0005\nsamples = 41\nOutflow = [ 0.06787237]", shape="box"] ;
75 -> 77 ;
78 [label="mse = 0.0022\nsamples = 5\nOutflow = [ 0.09952967]", shape="box"] ;
74 -> 78 ;
79 [label="mse = 0.0025\nsamples = 5\nOutflow = [ 0.13482358]", shape="box"] ;
73 -> 79 ;
80 [label="Inflow(7day) <= 0.1347\nmse = 0.00290205358146\nsamples = 63", shape="box"] ;
56 -> 80 ;
81 [label="Inflow <= 0.0587\nmse = 0.00181673306681\nsamples = 42", shape="box"] ;
80 -> 81 ;
82 [label="Inflow(14day) <= 0.0752\nmse = 0.00146463717548\nsamples = 15", shape="box"] ;
81 -> 82 ;
83 [label="mse = 0.0004\nsamples = 9\nOutflow = [ 0.09660469]", shape="box"] ;
82 -> 83 ;
84 [label="mse = 0.0009\nsamples = 6\nOutflow = [ 0.0366857]", shape="box"] ;
82 -> 84 ;
85 [label="Outflow(28day) <= 0.0373\nmse = 0.00100441463495\nsamples = 27", shape="box"] ;
81 -> 85 ;
86 [label="mse = 0.0004\nsamples = 5\nOutflow = [ 0.17383875]", shape="box"] ;
85 -> 86 ;
87 [label="Outflow(28day) <= 0.1190\nmse = 0.000494962020046\nsamples = 22", shape="box"] ;
85 -> 87 ;
88 [label="mse = 0.0005\nsamples = 16\nOutflow = [ 0.10740178]", shape="box"] ;
87 -> 88 ;
89 [label="mse = 0.0000\nsamples = 6\nOutflow = [ 0.13465611]", shape="box"] ;
87 -> 89 ;
90 [label="Inflow <= 0.0647\nmse = 0.00160817165667\nsamples = 21", shape="box"] ;
80 -> 90 ;
91 [label="mse = 0.0018\nsamples = 5\nOutflow = [ 0.12102348]", shape="box"] ;
90 -> 91 ;
92 [label="Storage <= 0.7092\nmse = 0.00018882383137\nsamples = 16", shape="box"] ;
90 -> 92 ;
93 [label="mse = 0.0003\nsamples = 5\nOutflow = [ 0.18428199]", shape="box"] ;
92 -> 93 ;
94 [label="Inflow(7dayForecast) <= 0.0820\nmse = 3.31320536419e-05\nsamples = 11", shape="box"] ;
92 -> 94 ;
95 [label="mse = 0.0001\nsamples = 5\nOutflow = [ 0.19962525]", shape="box"] ;
94 -> 95 ;
96 [label="mse = 0.0000\nsamples = 6\nOutflow = [ 0.20529455]", shape="box"] ;
94 -> 96 ;
}