digraph Tree {
0 [label="Outflow(7day) <= 0.0050\nmse = 1.02932578269e-05\nsamples = 2882", shape="box"] ;
1 [label="Outflow(7day) <= 0.0024\nmse = 2.89902280446e-06\nsamples = 2272", shape="box"] ;
0 -> 1 ;
2 [label="Outflow(7day) <= 0.0013\nmse = 1.39645877017e-06\nsamples = 1295", shape="box"] ;
1 -> 2 ;
3 [label="Storage <= 0.6922\nmse = 4.82042973125e-07\nsamples = 828", shape="box"] ;
2 -> 3 ;
4 [label="mse = 0.0000\nsamples = 823\nOutflow = [ 0.00061586]", shape="box"] ;
3 -> 4 ;
5 [label="mse = 0.0000\nsamples = 5\nOutflow = [ 0.00464847]", shape="box"] ;
3 -> 5 ;
6 [label="Inflow(7day) <= 0.0063\nmse = 1.92098630856e-06\nsamples = 467", shape="box"] ;
2 -> 6 ;
7 [label="mse = 0.0000\nsamples = 461\nOutflow = [ 0.00185739]", shape="box"] ;
6 -> 7 ;
8 [label="mse = 0.0001\nsamples = 6\nOutflow = [ 0.00905888]", shape="box"] ;
6 -> 8 ;
9 [label="Outflow(7day) <= 0.0039\nmse = 1.28838828795e-06\nsamples = 977", shape="box"] ;
1 -> 9 ;
10 [label="Outflow(21day) <= 0.0020\nmse = 9.31839145918e-07\nsamples = 688", shape="box"] ;
9 -> 10 ;
11 [label="mse = 0.0000\nsamples = 14\nOutflow = [ 0.00559608]", shape="box"] ;
10 -> 11 ;
12 [label="mse = 0.0000\nsamples = 674\nOutflow = [ 0.00322061]", shape="box"] ;
10 -> 12 ;
13 [label="Outflow(28day) <= 0.0020\nmse = 1.1085049937e-06\nsamples = 289", shape="box"] ;
9 -> 13 ;
14 [label="mse = 0.0000\nsamples = 7\nOutflow = [ 0.00672606]", shape="box"] ;
13 -> 14 ;
15 [label="mse = 0.0000\nsamples = 282\nOutflow = [ 0.00442177]", shape="box"] ;
13 -> 15 ;
16 [label="Outflow(7day) <= 0.0103\nmse = 1.28973250579e-05\nsamples = 610", shape="box"] ;
0 -> 16 ;
17 [label="Outflow(7day) <= 0.0070\nmse = 4.32974180762e-06\nsamples = 513", shape="box"] ;
16 -> 17 ;
18 [label="Inflow(7day) <= 0.0126\nmse = 2.32686072236e-06\nsamples = 281", shape="box"] ;
17 -> 18 ;
19 [label="mse = 0.0000\nsamples = 268\nOutflow = [ 0.00558504]", shape="box"] ;
18 -> 19 ;
20 [label="mse = 0.0000\nsamples = 13\nOutflow = [ 0.00806857]", shape="box"] ;
18 -> 20 ;
21 [label="Inflow(7dayForecast) <= 0.0060\nmse = 3.53306769432e-06\nsamples = 232", shape="box"] ;
17 -> 21 ;
22 [label="mse = 0.0000\nsamples = 48\nOutflow = [ 0.00629192]", shape="box"] ;
21 -> 22 ;
23 [label="mse = 0.0000\nsamples = 184\nOutflow = [ 0.00860378]", shape="box"] ;
21 -> 23 ;
24 [label="Fall <= 0.5000\nmse = 2.35462854245e-05\nsamples = 97", shape="box"] ;
16 -> 24 ;
25 [label="Inflow <= 0.0222\nmse = 1.33264638737e-05\nsamples = 82", shape="box"] ;
24 -> 25 ;
26 [label="mse = 0.0000\nsamples = 76\nOutflow = [ 0.01125345]", shape="box"] ;
25 -> 26 ;
27 [label="mse = 0.0000\nsamples = 6\nOutflow = [ 0.01778621]", shape="box"] ;
25 -> 27 ;
28 [label="Outflow(28day) <= 0.0064\nmse = 1.4175088129e-06\nsamples = 15", shape="box"] ;
24 -> 28 ;
29 [label="mse = 0.0000\nsamples = 5\nOutflow = [ 0.02048165]", shape="box"] ;
28 -> 29 ;
30 [label="mse = 0.0000\nsamples = 10\nOutflow = [ 0.02176456]", shape="box"] ;
28 -> 30 ;
}