digraph Tree {
0 [label="Inflow(1month) <= 0.0120\nmse = 0.000100773505505\nsamples = 141", shape="box"] ;
1 [label="Inflow(1month) <= 0.0071\nmse = 1.9280088641e-05\nsamples = 97", shape="box"] ;
0 -> 1 ;
2 [label="Inflow(1month) <= 0.0049\nmse = 6.36576160679e-06\nsamples = 61", shape="box"] ;
1 -> 2 ;
3 [label="Inflow(2month) <= 0.0047\nmse = 4.0183418184e-07\nsamples = 27", shape="box"] ;
2 -> 3 ;
4 [label="mse = 0.0000\nsamples = 19\nOutflow = [ 0.00096837]", shape="box"] ;
3 -> 4 ;
5 [label="mse = 0.0000\nsamples = 8\nOutflow = [ 0.00189261]", shape="box"] ;
3 -> 5 ;
6 [label="Outflow(1month) <= 0.0107\nmse = 5.75795805521e-06\nsamples = 34", shape="box"] ;
2 -> 6 ;
7 [label="mse = 0.0000\nsamples = 29\nOutflow = [ 0.00413649]", shape="box"] ;
6 -> 7 ;
8 [label="mse = 0.0000\nsamples = 5\nOutflow = [ 0.00808302]", shape="box"] ;
6 -> 8 ;
9 [label="Inflow(2month) <= 0.0086\nmse = 8.8917334462e-06\nsamples = 36", shape="box"] ;
1 -> 9 ;
10 [label="Inflow <= 0.0102\nmse = 8.04655073002e-06\nsamples = 16", shape="box"] ;
9 -> 10 ;
11 [label="mse = 0.0000\nsamples = 10\nOutflow = [ 0.00689017]", shape="box"] ;
10 -> 11 ;
12 [label="mse = 0.0000\nsamples = 6\nOutflow = [ 0.01150025]", shape="box"] ;
10 -> 12 ;
13 [label="Outflow(1month) <= 0.0138\nmse = 5.290523493e-06\nsamples = 20", shape="box"] ;
9 -> 13 ;
14 [label="mse = 0.0000\nsamples = 9\nOutflow = [ 0.01074713]", shape="box"] ;
13 -> 14 ;
15 [label="mse = 0.0000\nsamples = 11\nOutflow = [ 0.0125182]", shape="box"] ;
13 -> 15 ;
16 [label="Inflow <= 0.0263\nmse = 7.46367380197e-05\nsamples = 44", shape="box"] ;
0 -> 16 ;
17 [label="Inflow(1month) <= 0.0167\nmse = 1.8062379654e-05\nsamples = 33", shape="box"] ;
16 -> 17 ;
18 [label="Storage <= 0.7927\nmse = 1.10808063662e-05\nsamples = 15", shape="box"] ;
17 -> 18 ;
19 [label="mse = 0.0000\nsamples = 6\nOutflow = [ 0.01348123]", shape="box"] ;
18 -> 19 ;
20 [label="mse = 0.0000\nsamples = 9\nOutflow = [ 0.01753008]", shape="box"] ;
18 -> 20 ;
21 [label="Inflow <= 0.0206\nmse = 1.18463969686e-05\nsamples = 18", shape="box"] ;
17 -> 21 ;
22 [label="mse = 0.0000\nsamples = 13\nOutflow = [ 0.01957449]", shape="box"] ;
21 -> 22 ;
23 [label="mse = 0.0000\nsamples = 5\nOutflow = [ 0.02490756]", shape="box"] ;
21 -> 23 ;
24 [label="Outflow(1month) <= 0.0328\nmse = 1.03306141555e-05\nsamples = 11", shape="box"] ;
16 -> 24 ;
25 [label="mse = 0.0000\nsamples = 6\nOutflow = [ 0.03750381]", shape="box"] ;
24 -> 25 ;
26 [label="mse = 0.0000\nsamples = 5\nOutflow = [ 0.03503522]", shape="box"] ;
24 -> 26 ;
}