digraph Tree {
0 [label="Outflow(7day) <= 0.0110\nmse = 8.26400541403e-05\nsamples = 3697", shape="box"] ;
1 [label="Outflow(7day) <= 0.0036\nmse = 1.40694374034e-05\nsamples = 2557", shape="box"] ;
0 -> 1 ;
2 [label="Outflow(7day) <= 0.0010\nmse = 3.56759967832e-06\nsamples = 1861", shape="box"] ;
1 -> 2 ;
3 [label="Inflow(7day) <= 0.0157\nmse = 9.42457528319e-07\nsamples = 1345", shape="box"] ;
2 -> 3 ;
4 [label="mse = 0.0000\nsamples = 1338\nOutflow = [ 0.00048792]", shape="box"] ;
3 -> 4 ;
5 [label="mse = 0.0000\nsamples = 7\nOutflow = [ 0.00444418]", shape="box"] ;
3 -> 5 ;
6 [label="Outflow(14day) <= 0.0019\nmse = 7.06990121327e-06\nsamples = 516", shape="box"] ;
2 -> 6 ;
7 [label="mse = 0.0000\nsamples = 233\nOutflow = [ 0.00382831]", shape="box"] ;
6 -> 7 ;
8 [label="mse = 0.0000\nsamples = 283\nOutflow = [ 0.00169512]", shape="box"] ;
6 -> 8 ;
9 [label="Inflow(7day) <= 0.0064\nmse = 1.9402538499e-05\nsamples = 696", shape="box"] ;
1 -> 9 ;
10 [label="Storage <= 0.0680\nmse = 9.56620414397e-06\nsamples = 356", shape="box"] ;
9 -> 10 ;
11 [label="mse = 0.0000\nsamples = 193\nOutflow = [ 0.00341374]", shape="box"] ;
10 -> 11 ;
12 [label="mse = 0.0000\nsamples = 163\nOutflow = [ 0.00580031]", shape="box"] ;
10 -> 12 ;
13 [label="Inflow(7day) <= 0.0157\nmse = 1.94339828108e-05\nsamples = 340", shape="box"] ;
9 -> 13 ;
14 [label="mse = 0.0000\nsamples = 253\nOutflow = [ 0.00797075]", shape="box"] ;
13 -> 14 ;
15 [label="mse = 0.0000\nsamples = 87\nOutflow = [ 0.01194183]", shape="box"] ;
13 -> 15 ;
16 [label="Outflow(7day) <= 0.0220\nmse = 5.61752871612e-05\nsamples = 1140", shape="box"] ;
0 -> 16 ;
17 [label="Outflow(7day) <= 0.0155\nmse = 1.93851973662e-05\nsamples = 850", shape="box"] ;
16 -> 17 ;
18 [label="Storage <= 0.2055\nmse = 1.31875039894e-05\nsamples = 440", shape="box"] ;
17 -> 18 ;
19 [label="mse = 0.0000\nsamples = 133\nOutflow = [ 0.01060139]", shape="box"] ;
18 -> 19 ;
20 [label="mse = 0.0000\nsamples = 307\nOutflow = [ 0.01434343]", shape="box"] ;
18 -> 20 ;
21 [label="Inflow(7day) <= 0.0183\nmse = 1.4162931575e-05\nsamples = 410", shape="box"] ;
17 -> 21 ;
22 [label="mse = 0.0000\nsamples = 332\nOutflow = [ 0.01726006]", shape="box"] ;
21 -> 22 ;
23 [label="mse = 0.0000\nsamples = 78\nOutflow = [ 0.02115796]", shape="box"] ;
21 -> 23 ;
24 [label="Outflow(7day) <= 0.0290\nmse = 4.24471958272e-05\nsamples = 290", shape="box"] ;
16 -> 24 ;
25 [label="Inflow(7dayForecast) <= 0.0223\nmse = 1.73101207521e-05\nsamples = 179", shape="box"] ;
24 -> 25 ;
26 [label="mse = 0.0000\nsamples = 81\nOutflow = [ 0.02237091]", shape="box"] ;
25 -> 26 ;
27 [label="mse = 0.0000\nsamples = 98\nOutflow = [ 0.02768384]", shape="box"] ;
25 -> 27 ;
28 [label="Inflow(7day) <= 0.0472\nmse = 4.47794169931e-05\nsamples = 111", shape="box"] ;
24 -> 28 ;
29 [label="mse = 0.0000\nsamples = 96\nOutflow = [ 0.03166211]", shape="box"] ;
28 -> 29 ;
30 [label="mse = 0.0000\nsamples = 15\nOutflow = [ 0.04265033]", shape="box"] ;
28 -> 30 ;
}