digraph Tree {
0 [label="Inflow <= 0.3050\nmse = 0.0434421512746\nsamples = 148", shape="box"] ;
1 [label="Inflow <= 0.1637\nmse = 0.00702326501623\nsamples = 85", shape="box"] ;
0 -> 1 ;
2 [label="Inflow <= 0.0961\nmse = 0.00149536289056\nsamples = 53", shape="box"] ;
1 -> 2 ;
3 [label="Inflow <= 0.0584\nmse = 0.000206433830994\nsamples = 31", shape="box"] ;
2 -> 3 ;
4 [label="mse = 0.0000\nsamples = 17\nOutflow = [ 0.04667483]", shape="box"] ;
3 -> 4 ;
5 [label="mse = 0.0001\nsamples = 14\nOutflow = [ 0.07084781]", shape="box"] ;
3 -> 5 ;
6 [label="Inflow <= 0.1279\nmse = 0.000267809779048\nsamples = 22", shape="box"] ;
2 -> 6 ;
7 [label="mse = 0.0001\nsamples = 11\nOutflow = [ 0.1156033]", shape="box"] ;
6 -> 7 ;
8 [label="mse = 0.0001\nsamples = 11\nOutflow = [ 0.14385569]", shape="box"] ;
6 -> 8 ;
9 [label="Inflow <= 0.2385\nmse = 0.00110812242052\nsamples = 32", shape="box"] ;
1 -> 9 ;
10 [label="Inflow <= 0.2127\nmse = 0.000336546698958\nsamples = 15", shape="box"] ;
9 -> 10 ;
11 [label="mse = 0.0002\nsamples = 8\nOutflow = [ 0.19908892]", shape="box"] ;
10 -> 11 ;
12 [label="mse = 0.0000\nsamples = 7\nOutflow = [ 0.22850352]", shape="box"] ;
10 -> 12 ;
13 [label="Inflow <= 0.2644\nmse = 0.000275411509922\nsamples = 17", shape="box"] ;
9 -> 13 ;
14 [label="mse = 0.0000\nsamples = 6\nOutflow = [ 0.248962]", shape="box"] ;
13 -> 14 ;
15 [label="mse = 0.0001\nsamples = 11\nOutflow = [ 0.2809166]", shape="box"] ;
13 -> 15 ;
16 [label="Inflow <= 0.6919\nmse = 0.0268724283054\nsamples = 63", shape="box"] ;
0 -> 16 ;
17 [label="Inflow <= 0.4449\nmse = 0.00652033659777\nsamples = 58", shape="box"] ;
16 -> 17 ;
18 [label="Inflow <= 0.3823\nmse = 0.00140214654071\nsamples = 28", shape="box"] ;
17 -> 18 ;
19 [label="mse = 0.0004\nsamples = 16\nOutflow = [ 0.34942613]", shape="box"] ;
18 -> 19 ;
20 [label="mse = 0.0003\nsamples = 12\nOutflow = [ 0.4151961]", shape="box"] ;
18 -> 20 ;
21 [label="Inflow <= 0.5270\nmse = 0.00326002275039\nsamples = 30", shape="box"] ;
17 -> 21 ;
22 [label="mse = 0.0004\nsamples = 21\nOutflow = [ 0.47265786]", shape="box"] ;
21 -> 22 ;
23 [label="mse = 0.0010\nsamples = 9\nOutflow = [ 0.58594168]", shape="box"] ;
21 -> 23 ;
24 [label="mse = 0.0297\nsamples = 5\nOutflow = [ 0.94774406]", shape="box"] ;
16 -> 24 ;
}