digraph Tree {
0 [label="Inflow <= 0.0082\nmse = 2.13726665538e-05\nsamples = 141", shape="box"] ;
1 [label="Inflow(1month) <= 0.0054\nmse = 4.84472488404e-06\nsamples = 119", shape="box"] ;
0 -> 1 ;
2 [label="Inflow <= 0.0054\nmse = 1.94393736991e-06\nsamples = 94", shape="box"] ;
1 -> 2 ;
3 [label="Inflow(2month) <= 0.0026\nmse = 7.35754127513e-07\nsamples = 89", shape="box"] ;
2 -> 3 ;
4 [label="mse = 0.0000\nsamples = 68\nOutflow = [ 0.00151551]", shape="box"] ;
3 -> 4 ;
5 [label="mse = 0.0000\nsamples = 21\nOutflow = [ 0.00276869]", shape="box"] ;
3 -> 5 ;
6 [label="mse = 0.0000\nsamples = 5\nOutflow = [ 0.0054196]", shape="box"] ;
2 -> 6 ;
7 [label="Outflow(1month) <= 0.0053\nmse = 3.91885106695e-06\nsamples = 25", shape="box"] ;
1 -> 7 ;
8 [label="mse = 0.0000\nsamples = 7\nOutflow = [ 0.00401943]", shape="box"] ;
7 -> 8 ;
9 [label="Winter <= 0.5000\nmse = 3.13125346415e-06\nsamples = 18", shape="box"] ;
7 -> 9 ;
10 [label="mse = 0.0000\nsamples = 13\nOutflow = [ 0.00599725]", shape="box"] ;
9 -> 10 ;
11 [label="mse = 0.0000\nsamples = 5\nOutflow = [ 0.00814754]", shape="box"] ;
9 -> 11 ;
12 [label="Inflow <= 0.0167\nmse = 2.70571858405e-05\nsamples = 22", shape="box"] ;
0 -> 12 ;
13 [label="Inflow(1month) <= 0.0129\nmse = 1.69075756708e-05\nsamples = 16", shape="box"] ;
12 -> 13 ;
14 [label="Outflow(2month) <= 0.0078\nmse = 1.18837906438e-05\nsamples = 11", shape="box"] ;
13 -> 14 ;
15 [label="mse = 0.0000\nsamples = 6\nOutflow = [ 0.01116667]", shape="box"] ;
14 -> 15 ;
16 [label="mse = 0.0000\nsamples = 5\nOutflow = [ 0.00702662]", shape="box"] ;
14 -> 16 ;
17 [label="mse = 0.0000\nsamples = 5\nOutflow = [ 0.01407635]", shape="box"] ;
13 -> 17 ;
18 [label="mse = 0.0000\nsamples = 6\nOutflow = [ 0.01809228]", shape="box"] ;
12 -> 18 ;
}