digraph Tree {
0 [label="Outflow(7day) <= 0.0083\nmse = 2.27477815317e-05\nsamples = 3765", shape="box"] ;
1 [label="Outflow(7day) <= 0.0037\nmse = 3.8725983861e-06\nsamples = 3216", shape="box"] ;
0 -> 1 ;
2 [label="Outflow(7day) <= 0.0020\nmse = 6.7266492629e-07\nsamples = 2551", shape="box"] ;
1 -> 2 ;
3 [label="Outflow(7day) <= 0.0009\nmse = 1.67827538254e-07\nsamples = 1984", shape="box"] ;
2 -> 3 ;
4 [label="mse = 0.0000\nsamples = 86\nOutflow = [  8.37128796e-05]", shape="box"] ;
3 -> 4 ;
5 [label="mse = 0.0000\nsamples = 1898\nOutflow = [ 0.00150266]", shape="box"] ;
3 -> 5 ;
6 [label="Outflow(7day) <= 0.0030\nmse = 9.18188989263e-07\nsamples = 567", shape="box"] ;
2 -> 6 ;
7 [label="Inflow(7dayForecast) <= 0.0138\nmse = 6.90180782161e-07\nsamples = 413", shape="box"] ;
6 -> 7 ;
8 [label="Outflow(7day) <= 0.0025\nmse = 4.67662781846e-07\nsamples = 408", shape="box"] ;
7 -> 8 ;
9 [label="mse = 0.0000\nsamples = 183\nOutflow = [ 0.00233541]", shape="box"] ;
8 -> 9 ;
10 [label="mse = 0.0000\nsamples = 225\nOutflow = [ 0.0028141]", shape="box"] ;
8 -> 10 ;
11 [label="mse = 0.0000\nsamples = 5\nOutflow = [ 0.00531912]", shape="box"] ;
7 -> 11 ;
12 [label="Outflow(28day) <= 0.0023\nmse = 1.10545984854e-06\nsamples = 154", shape="box"] ;
6 -> 12 ;
13 [label="Outflow(7day) <= 0.0032\nmse = 3.21431288295e-06\nsamples = 13", shape="box"] ;
12 -> 13 ;
14 [label="mse = 0.0000\nsamples = 8\nOutflow = [ 0.00412034]", shape="box"] ;
13 -> 14 ;
15 [label="mse = 0.0000\nsamples = 5\nOutflow = [ 0.00621023]", shape="box"] ;
13 -> 15 ;
16 [label="Outflow(14day) <= 0.0043\nmse = 6.75704045229e-07\nsamples = 141", shape="box"] ;
12 -> 16 ;
17 [label="mse = 0.0000\nsamples = 126\nOutflow = [ 0.00338378]", shape="box"] ;
16 -> 17 ;
18 [label="mse = 0.0000\nsamples = 15\nOutflow = [ 0.00216867]", shape="box"] ;
16 -> 18 ;
19 [label="Outflow(7day) <= 0.0055\nmse = 3.7914013272e-06\nsamples = 665", shape="box"] ;
1 -> 19 ;
20 [label="Inflow <= 0.0055\nmse = 3.29483730329e-06\nsamples = 234", shape="box"] ;
19 -> 20 ;
21 [label="Outflow(21day) <= 0.0034\nmse = 1.08678551756e-06\nsamples = 127", shape="box"] ;
20 -> 21 ;
22 [label="Summer <= 0.5000\nmse = 8.66331530882e-07\nsamples = 20", shape="box"] ;
21 -> 22 ;
23 [label="mse = 0.0000\nsamples = 15\nOutflow = [ 0.00482744]", shape="box"] ;
22 -> 23 ;
24 [label="mse = 0.0000\nsamples = 5\nOutflow = [ 0.00656117]", shape="box"] ;
22 -> 24 ;
25 [label="Outflow(14day) <= 0.0047\nmse = 5.79183918224e-07\nsamples = 107", shape="box"] ;
21 -> 25 ;
26 [label="mse = 0.0000\nsamples = 72\nOutflow = [ 0.00369225]", shape="box"] ;
25 -> 26 ;
27 [label="mse = 0.0000\nsamples = 35\nOutflow = [ 0.00278068]", shape="box"] ;
25 -> 27 ;
28 [label="Outflow(21day) <= 0.0031\nmse = 4.47575921066e-06\nsamples = 107", shape="box"] ;
20 -> 28 ;
29 [label="Inflow <= 0.0070\nmse = 1.22368930562e-05\nsamples = 10", shape="box"] ;
28 -> 29 ;
30 [label="mse = 0.0000\nsamples = 5\nOutflow = [ 0.00599435]", shape="box"] ;
29 -> 30 ;
31 [label="mse = 0.0000\nsamples = 5\nOutflow = [ 0.01134866]", shape="box"] ;
29 -> 31 ;
32 [label="Inflow(28day) <= 0.0054\nmse = 2.39585560993e-06\nsamples = 97", shape="box"] ;
28 -> 32 ;
33 [label="mse = 0.0000\nsamples = 13\nOutflow = [ 0.00673184]", shape="box"] ;
32 -> 33 ;
34 [label="mse = 0.0000\nsamples = 84\nOutflow = [ 0.00469849]", shape="box"] ;
32 -> 34 ;
35 [label="Inflow(7day) <= 0.0135\nmse = 2.71844244422e-06\nsamples = 431", shape="box"] ;
19 -> 35 ;
36 [label="Outflow(7day) <= 0.0068\nmse = 1.76312538802e-06\nsamples = 426", shape="box"] ;
35 -> 36 ;
37 [label="Inflow(7dayForecast) <= 0.0166\nmse = 1.03320373601e-06\nsamples = 313", shape="box"] ;
36 -> 37 ;
38 [label="mse = 0.0000\nsamples = 308\nOutflow = [ 0.00590124]", shape="box"] ;
37 -> 38 ;
39 [label="mse = 0.0000\nsamples = 5\nOutflow = [ 0.00937337]", shape="box"] ;
37 -> 39 ;
40 [label="Outflow(21day) <= 0.0082\nmse = 2.57367212344e-06\nsamples = 113", shape="box"] ;
36 -> 40 ;
41 [label="mse = 0.0000\nsamples = 67\nOutflow = [ 0.00781216]", shape="box"] ;
40 -> 41 ;
42 [label="mse = 0.0000\nsamples = 46\nOutflow = [ 0.0064083]", shape="box"] ;
40 -> 42 ;
43 [label="mse = 0.0000\nsamples = 5\nOutflow = [ 0.01395639]", shape="box"] ;
35 -> 43 ;
44 [label="Outflow(7day) <= 0.0160\nmse = 2.42782765129e-05\nsamples = 549", shape="box"] ;
0 -> 44 ;
45 [label="Outflow(7day) <= 0.0113\nmse = 8.70650734165e-06\nsamples = 385", shape="box"] ;
44 -> 45 ;
46 [label="Outflow(21day) <= 0.0059\nmse = 5.11015912937e-06\nsamples = 179", shape="box"] ;
45 -> 46 ;
47 [label="Inflow(7day) <= 0.0084\nmse = 9.57744883988e-06\nsamples = 11", shape="box"] ;
46 -> 47 ;
48 [label="mse = 0.0000\nsamples = 5\nOutflow = [ 0.01351511]", shape="box"] ;
47 -> 48 ;
49 [label="mse = 0.0000\nsamples = 6\nOutflow = [ 0.01737376]", shape="box"] ;
47 -> 49 ;
50 [label="Outflow(28day) <= 0.0099\nmse = 2.12763662341e-06\nsamples = 168", shape="box"] ;
46 -> 50 ;
51 [label="Outflow(7day) <= 0.0096\nmse = 1.8944959383e-06\nsamples = 92", shape="box"] ;
50 -> 51 ;
52 [label="mse = 0.0000\nsamples = 77\nOutflow = [ 0.00912675]", shape="box"] ;
51 -> 52 ;
53 [label="mse = 0.0000\nsamples = 15\nOutflow = [ 0.01191642]", shape="box"] ;
51 -> 53 ;
54 [label="Outflow(7day) <= 0.0092\nmse = 1.51602444271e-06\nsamples = 76", shape="box"] ;
50 -> 54 ;
55 [label="mse = 0.0000\nsamples = 17\nOutflow = [ 0.00693134]", shape="box"] ;
54 -> 55 ;
56 [label="mse = 0.0000\nsamples = 59\nOutflow = [ 0.00869952]", shape="box"] ;
54 -> 56 ;
57 [label="Outflow(7day) <= 0.0132\nmse = 5.51763279771e-06\nsamples = 206", shape="box"] ;
45 -> 57 ;
58 [label="Outflow(21day) <= 0.0086\nmse = 4.44386589875e-06\nsamples = 92", shape="box"] ;
57 -> 58 ;
59 [label="mse = 0.0000\nsamples = 9\nOutflow = [ 0.01593189]", shape="box"] ;
58 -> 59 ;
60 [label="Storage <= 0.8092\nmse = 2.09529534723e-06\nsamples = 83", shape="box"] ;
58 -> 60 ;
61 [label="mse = 0.0000\nsamples = 23\nOutflow = [ 0.01013117]", shape="box"] ;
60 -> 61 ;
62 [label="mse = 0.0000\nsamples = 60\nOutflow = [ 0.01181276]", shape="box"] ;
60 -> 62 ;
63 [label="Outflow(14day) <= 0.0098\nmse = 3.91962135599e-06\nsamples = 114", shape="box"] ;
57 -> 63 ;
64 [label="mse = 0.0000\nsamples = 6\nOutflow = [ 0.01848964]", shape="box"] ;
63 -> 64 ;
65 [label="Outflow(28day) <= 0.0152\nmse = 2.32669212187e-06\nsamples = 108", shape="box"] ;
63 -> 65 ;
66 [label="mse = 0.0000\nsamples = 97\nOutflow = [ 0.01421924]", shape="box"] ;
65 -> 66 ;
67 [label="mse = 0.0000\nsamples = 11\nOutflow = [ 0.01111496]", shape="box"] ;
65 -> 67 ;
68 [label="Outflow(7day) <= 0.0210\nmse = 1.23263843545e-05\nsamples = 164", shape="box"] ;
44 -> 68 ;
69 [label="Inflow(7day) <= 0.0270\nmse = 5.84249840114e-06\nsamples = 93", shape="box"] ;
68 -> 69 ;
70 [label="Spring <= 0.5000\nmse = 3.07672374299e-06\nsamples = 87", shape="box"] ;
69 -> 70 ;
71 [label="Outflow(28day) <= 0.0133\nmse = 1.79805334569e-06\nsamples = 42", shape="box"] ;
70 -> 71 ;
72 [label="mse = 0.0000\nsamples = 28\nOutflow = [ 0.01641905]", shape="box"] ;
71 -> 72 ;
73 [label="mse = 0.0000\nsamples = 14\nOutflow = [ 0.01436669]", shape="box"] ;
71 -> 73 ;
74 [label="Inflow <= 0.0159\nmse = 2.41325453465e-06\nsamples = 45", shape="box"] ;
70 -> 74 ;
75 [label="mse = 0.0000\nsamples = 5\nOutflow = [ 0.01471436]", shape="box"] ;
74 -> 75 ;
76 [label="mse = 0.0000\nsamples = 40\nOutflow = [ 0.01806888]", shape="box"] ;
74 -> 76 ;
77 [label="mse = 0.0000\nsamples = 6\nOutflow = [ 0.02375756]", shape="box"] ;
69 -> 77 ;
78 [label="Outflow(7day) <= 0.0235\nmse = 1.94909036981e-06\nsamples = 71", shape="box"] ;
68 -> 78 ;
79 [label="Storage <= 0.8466\nmse = 2.69832263757e-06\nsamples = 20", shape="box"] ;
78 -> 79 ;
80 [label="mse = 0.0000\nsamples = 6\nOutflow = [ 0.01944701]", shape="box"] ;
79 -> 80 ;
81 [label="Storage <= 0.8552\nmse = 1.1555403894e-06\nsamples = 14", shape="box"] ;
79 -> 81 ;
82 [label="mse = 0.0000\nsamples = 9\nOutflow = [ 0.02138922]", shape="box"] ;
81 -> 82 ;
83 [label="mse = 0.0000\nsamples = 5\nOutflow = [ 0.02330122]", shape="box"] ;
81 -> 83 ;
84 [label="Outflow(7day) <= 0.0236\nmse = 1.04242869936e-07\nsamples = 51", shape="box"] ;
78 -> 84 ;
85 [label="mse = 0.0000\nsamples = 8\nOutflow = [ 0.02331216]", shape="box"] ;
84 -> 85 ;
86 [label="mse = 0.0000\nsamples = 43\nOutflow = [ 0.02369041]", shape="box"] ;
84 -> 86 ;
}