digraph Tree {
0 [label="Outflow(7day) <= 0.0120\nmse = 6.12442227053e-05\nsamples = 3667", shape="box"] ;
1 [label="Outflow(7day) <= 0.0042\nmse = 1.46922542076e-05\nsamples = 3176", shape="box"] ;
0 -> 1 ;
2 [label="Outflow(7day) <= 0.0014\nmse = 3.10677479331e-06\nsamples = 2108", shape="box"] ;
1 -> 2 ;
3 [label="Outflow(7day) <= 0.0007\nmse = 8.14637738433e-07\nsamples = 1472", shape="box"] ;
2 -> 3 ;
4 [label="mse = 0.0000\nsamples = 1066\nOutflow = [ 0.00040858]", shape="box"] ;
3 -> 4 ;
5 [label="mse = 0.0000\nsamples = 406\nOutflow = [ 0.00121102]", shape="box"] ;
3 -> 5 ;
6 [label="Storage <= 0.1526\nmse = 4.88152858194e-06\nsamples = 636", shape="box"] ;
2 -> 6 ;
7 [label="mse = 0.0000\nsamples = 339\nOutflow = [ 0.00199728]", shape="box"] ;
6 -> 7 ;
8 [label="mse = 0.0000\nsamples = 297\nOutflow = [ 0.00388408]", shape="box"] ;
6 -> 8 ;
9 [label="Outflow(7day) <= 0.0087\nmse = 1.17011161777e-05\nsamples = 1068", shape="box"] ;
1 -> 9 ;
10 [label="Inflow(7day) <= 0.0133\nmse = 8.20654825745e-06\nsamples = 690", shape="box"] ;
9 -> 10 ;
11 [label="mse = 0.0000\nsamples = 622\nOutflow = [ 0.00582918]", shape="box"] ;
10 -> 11 ;
12 [label="mse = 0.0000\nsamples = 68\nOutflow = [ 0.0096923]", shape="box"] ;
10 -> 12 ;
13 [label="Inflow <= 0.0008\nmse = 8.81757094524e-06\nsamples = 378", shape="box"] ;
9 -> 13 ;
14 [label="mse = 0.0000\nsamples = 42\nOutflow = [ 0.0067183]", shape="box"] ;
13 -> 14 ;
15 [label="mse = 0.0000\nsamples = 336\nOutflow = [ 0.01040604]", shape="box"] ;
13 -> 15 ;
16 [label="Inflow(21day) <= 0.0357\nmse = 0.000123573869547\nsamples = 491", shape="box"] ;
0 -> 16 ;
17 [label="Outflow(7day) <= 0.0171\nmse = 2.36120283531e-05\nsamples = 419", shape="box"] ;
16 -> 17 ;
18 [label="Inflow(14day) <= 0.0231\nmse = 1.21156396708e-05\nsamples = 235", shape="box"] ;
17 -> 18 ;
19 [label="mse = 0.0000\nsamples = 188\nOutflow = [ 0.01277403]", shape="box"] ;
18 -> 19 ;
20 [label="mse = 0.0000\nsamples = 47\nOutflow = [ 0.01673549]", shape="box"] ;
18 -> 20 ;
21 [label="Inflow(21day) <= 0.0335\nmse = 1.65235386078e-05\nsamples = 184", shape="box"] ;
17 -> 21 ;
22 [label="mse = 0.0000\nsamples = 175\nOutflow = [ 0.01936399]", shape="box"] ;
21 -> 22 ;
23 [label="mse = 0.0000\nsamples = 9\nOutflow = [ 0.02821097]", shape="box"] ;
21 -> 23 ;
24 [label="Inflow(28day) <= 0.0469\nmse = 0.000159294183428\nsamples = 72", shape="box"] ;
16 -> 24 ;
25 [label="Storage <= 0.7324\nmse = 5.51471569176e-05\nsamples = 61", shape="box"] ;
24 -> 25 ;
26 [label="mse = 0.0000\nsamples = 39\nOutflow = [ 0.03288359]", shape="box"] ;
25 -> 26 ;
27 [label="mse = 0.0000\nsamples = 22\nOutflow = [ 0.04483679]", shape="box"] ;
25 -> 27 ;
28 [label="Inflow(21day) <= 0.0494\nmse = 3.33020677954e-05\nsamples = 11", shape="box"] ;
24 -> 28 ;
29 [label="mse = 0.0000\nsamples = 6\nOutflow = [ 0.07047789]", shape="box"] ;
28 -> 29 ;
30 [label="mse = 0.0000\nsamples = 5\nOutflow = [ 0.06065132]", shape="box"] ;
28 -> 30 ;
}