digraph Tree {
0 [label="Outflow(7day) <= 0.0120\nmse = 6.12442227053e-05\nsamples = 3667", shape="box"] ;
1 [label="Outflow(7day) <= 0.0042\nmse = 1.46922542076e-05\nsamples = 3176", shape="box"] ;
0 -> 1 ;
2 [label="Outflow(7day) <= 0.0014\nmse = 3.10677479331e-06\nsamples = 2108", shape="box"] ;
1 -> 2 ;
3 [label="Outflow(7day) <= 0.0007\nmse = 8.14637738433e-07\nsamples = 1472", shape="box"] ;
2 -> 3 ;
4 [label="Outflow(7day) <= 0.0002\nmse = 4.64128722667e-07\nsamples = 1066", shape="box"] ;
3 -> 4 ;
5 [label="Outflow(21day) <= 0.0007\nmse = 4.0045486333e-07\nsamples = 457", shape="box"] ;
4 -> 5 ;
6 [label="mse = 0.0000\nsamples = 393\nOutflow = [ 0.00016607]", shape="box"] ;
5 -> 6 ;
7 [label="mse = 0.0000\nsamples = 64\nOutflow = [ 0.00044887]", shape="box"] ;
5 -> 7 ;
8 [label="Inflow(7dayForecast) <= 0.0193\nmse = 4.57831043065e-07\nsamples = 609", shape="box"] ;
4 -> 8 ;
9 [label="mse = 0.0000\nsamples = 598\nOutflow = [ 0.00053928]", shape="box"] ;
8 -> 9 ;
10 [label="mse = 0.0000\nsamples = 11\nOutflow = [ 0.00173304]", shape="box"] ;
8 -> 10 ;
11 [label="Inflow(14day) <= 0.0078\nmse = 1.26862723606e-06\nsamples = 406", shape="box"] ;
3 -> 11 ;
12 [label="Storage <= 0.0829\nmse = 8.24439263825e-07\nsamples = 401", shape="box"] ;
11 -> 12 ;
13 [label="mse = 0.0000\nsamples = 101\nOutflow = [ 0.00073447]", shape="box"] ;
12 -> 13 ;
14 [label="mse = 0.0000\nsamples = 300\nOutflow = [ 0.00129982]", shape="box"] ;
12 -> 14 ;
15 [label="mse = 0.0000\nsamples = 5\nOutflow = [ 0.00550937]", shape="box"] ;
11 -> 15 ;
16 [label="Storage <= 0.1526\nmse = 4.88152858194e-06\nsamples = 636", shape="box"] ;
2 -> 16 ;
17 [label="Outflow(7day) <= 0.0024\nmse = 1.42088037977e-06\nsamples = 339", shape="box"] ;
16 -> 17 ;
18 [label="Outflow(21day) <= 0.0011\nmse = 9.50146626511e-07\nsamples = 190", shape="box"] ;
17 -> 18 ;
19 [label="mse = 0.0000\nsamples = 9\nOutflow = [ 0.00343834]", shape="box"] ;
18 -> 19 ;
20 [label="mse = 0.0000\nsamples = 181\nOutflow = [ 0.00152432]", shape="box"] ;
18 -> 20 ;
21 [label="Inflow(7dayForecast) <= 0.0173\nmse = 1.59712794051e-06\nsamples = 149", shape="box"] ;
17 -> 21 ;
22 [label="mse = 0.0000\nsamples = 142\nOutflow = [ 0.00236219]", shape="box"] ;
21 -> 22 ;
23 [label="mse = 0.0000\nsamples = 7\nOutflow = [ 0.00497159]", shape="box"] ;
21 -> 23 ;
24 [label="Inflow(7day) <= 0.0122\nmse = 6.93402481355e-06\nsamples = 297", shape="box"] ;
16 -> 24 ;
25 [label="Inflow(14day) <= 0.0005\nmse = 5.71457952857e-06\nsamples = 288", shape="box"] ;
24 -> 25 ;
26 [label="mse = 0.0000\nsamples = 13\nOutflow = [ 0.00749155]", shape="box"] ;
25 -> 26 ;
27 [label="mse = 0.0000\nsamples = 275\nOutflow = [ 0.00351788]", shape="box"] ;
25 -> 27 ;
28 [label="mse = 0.0000\nsamples = 9\nOutflow = [ 0.00986246]", shape="box"] ;
24 -> 28 ;
29 [label="Outflow(7day) <= 0.0087\nmse = 1.17011161777e-05\nsamples = 1068", shape="box"] ;
1 -> 29 ;
30 [label="Inflow(7day) <= 0.0133\nmse = 8.20654825745e-06\nsamples = 690", shape="box"] ;
29 -> 30 ;
31 [label="Storage <= 0.1846\nmse = 6.66273293673e-06\nsamples = 622", shape="box"] ;
30 -> 31 ;
32 [label="Outflow(14day) <= 0.0045\nmse = 5.41534489259e-06\nsamples = 167", shape="box"] ;
31 -> 32 ;
33 [label="mse = 0.0000\nsamples = 18\nOutflow = [ 0.00790229]", shape="box"] ;
32 -> 33 ;
34 [label="mse = 0.0000\nsamples = 149\nOutflow = [ 0.00398548]", shape="box"] ;
32 -> 34 ;
35 [label="Inflow(7dayForecast) <= 0.0003\nmse = 6.10665896203e-06\nsamples = 455", shape="box"] ;
31 -> 35 ;
36 [label="mse = 0.0000\nsamples = 15\nOutflow = [ 0.00212245]", shape="box"] ;
35 -> 36 ;
37 [label="mse = 0.0000\nsamples = 440\nOutflow = [ 0.00649508]", shape="box"] ;
35 -> 37 ;
38 [label="Outflow(14day) <= 0.0066\nmse = 8.87498396741e-06\nsamples = 68", shape="box"] ;
30 -> 38 ;
39 [label="Inflow(7day) <= 0.0296\nmse = 4.71978156758e-06\nsamples = 29", shape="box"] ;
38 -> 39 ;
40 [label="mse = 0.0000\nsamples = 24\nOutflow = [ 0.01126698]", shape="box"] ;
39 -> 40 ;
41 [label="mse = 0.0000\nsamples = 5\nOutflow = [ 0.01422893]", shape="box"] ;
39 -> 41 ;
42 [label="Inflow <= 0.0180\nmse = 6.32653007785e-06\nsamples = 39", shape="box"] ;
38 -> 42 ;
43 [label="mse = 0.0000\nsamples = 25\nOutflow = [ 0.00706048]", shape="box"] ;
42 -> 43 ;
44 [label="mse = 0.0000\nsamples = 14\nOutflow = [ 0.01007229]", shape="box"] ;
42 -> 44 ;
45 [label="Inflow <= 0.0008\nmse = 8.81757094524e-06\nsamples = 378", shape="box"] ;
29 -> 45 ;
46 [label="Outflow(14day) <= 0.0100\nmse = 1.37207057305e-05\nsamples = 42", shape="box"] ;
45 -> 46 ;
47 [label="Inflow(7day) <= 0.0009\nmse = 1.01654468105e-05\nsamples = 32", shape="box"] ;
46 -> 47 ;
48 [label="mse = 0.0000\nsamples = 20\nOutflow = [ 0.00952934]", shape="box"] ;
47 -> 48 ;
49 [label="mse = 0.0000\nsamples = 12\nOutflow = [ 0.00512136]", shape="box"] ;
47 -> 49 ;
50 [label="Inflow <= 0.0005\nmse = 7.07362946712e-06\nsamples = 10", shape="box"] ;
46 -> 50 ;
51 [label="mse = 0.0000\nsamples = 5\nOutflow = [ 0.001152]", shape="box"] ;
50 -> 51 ;
52 [label="mse = 0.0000\nsamples = 5\nOutflow = [ 0.00487312]", shape="box"] ;
50 -> 52 ;
53 [label="Inflow(7day) <= 0.0164\nmse = 6.69363582887e-06\nsamples = 336", shape="box"] ;
45 -> 53 ;
54 [label="Outflow(7day) <= 0.0101\nmse = 5.56248495458e-06\nsamples = 288", shape="box"] ;
53 -> 54 ;
55 [label="mse = 0.0000\nsamples = 123\nOutflow = [ 0.00910568]", shape="box"] ;
54 -> 55 ;
56 [label="mse = 0.0000\nsamples = 165\nOutflow = [ 0.01076022]", shape="box"] ;
54 -> 56 ;
57 [label="Outflow(21day) <= 0.0099\nmse = 8.26338065355e-06\nsamples = 48", shape="box"] ;
53 -> 57 ;
58 [label="mse = 0.0000\nsamples = 29\nOutflow = [ 0.01393507]", shape="box"] ;
57 -> 58 ;
59 [label="mse = 0.0000\nsamples = 19\nOutflow = [ 0.01036195]", shape="box"] ;
57 -> 59 ;
60 [label="Inflow(21day) <= 0.0357\nmse = 0.000123573869547\nsamples = 491", shape="box"] ;
0 -> 60 ;
61 [label="Outflow(7day) <= 0.0171\nmse = 2.36120283531e-05\nsamples = 419", shape="box"] ;
60 -> 61 ;
62 [label="Inflow(14day) <= 0.0231\nmse = 1.21156396708e-05\nsamples = 235", shape="box"] ;
61 -> 62 ;
63 [label="Inflow <= 0.0015\nmse = 1.00884628728e-05\nsamples = 188", shape="box"] ;
62 -> 63 ;
64 [label="Inflow(7dayForecast) <= 0.0005\nmse = 1.36244792422e-05\nsamples = 16", shape="box"] ;
63 -> 64 ;
65 [label="mse = 0.0000\nsamples = 5\nOutflow = [ 0.00401514]", shape="box"] ;
64 -> 65 ;
66 [label="mse = 0.0000\nsamples = 11\nOutflow = [ 0.01005867]", shape="box"] ;
64 -> 66 ;
67 [label="Inflow(21day) <= 0.0124\nmse = 7.60434456495e-06\nsamples = 172", shape="box"] ;
63 -> 67 ;
68 [label="mse = 0.0000\nsamples = 72\nOutflow = [ 0.01451453]", shape="box"] ;
67 -> 68 ;
69 [label="mse = 0.0000\nsamples = 100\nOutflow = [ 0.01225751]", shape="box"] ;
67 -> 69 ;
70 [label="Outflow(7day) <= 0.0150\nmse = 7.66984350404e-06\nsamples = 47", shape="box"] ;
62 -> 70 ;
71 [label="Inflow(7dayForecast) <= 0.0268\nmse = 5.02475847158e-06\nsamples = 26", shape="box"] ;
70 -> 71 ;
72 [label="mse = 0.0000\nsamples = 20\nOutflow = [ 0.01462298]", shape="box"] ;
71 -> 72 ;
73 [label="mse = 0.0000\nsamples = 6\nOutflow = [ 0.01763353]", shape="box"] ;
71 -> 73 ;
74 [label="Inflow(7day) <= 0.0316\nmse = 5.37486713294e-06\nsamples = 21", shape="box"] ;
70 -> 74 ;
75 [label="mse = 0.0000\nsamples = 16\nOutflow = [ 0.01740659]", shape="box"] ;
74 -> 75 ;
76 [label="mse = 0.0000\nsamples = 5\nOutflow = [ 0.02196037]", shape="box"] ;
74 -> 76 ;
77 [label="Inflow(21day) <= 0.0335\nmse = 1.65235386078e-05\nsamples = 184", shape="box"] ;
61 -> 77 ;
78 [label="Outflow(21day) <= 0.0214\nmse = 1.21179693775e-05\nsamples = 175", shape="box"] ;
77 -> 78 ;
79 [label="Inflow(14day) <= 0.0167\nmse = 9.60022098177e-06\nsamples = 115", shape="box"] ;
78 -> 79 ;
80 [label="mse = 0.0000\nsamples = 55\nOutflow = [ 0.01708901]", shape="box"] ;
79 -> 80 ;
81 [label="mse = 0.0000\nsamples = 60\nOutflow = [ 0.01944629]", shape="box"] ;
79 -> 81 ;
82 [label="Outflow(21day) <= 0.0291\nmse = 1.0837768936e-05\nsamples = 60", shape="box"] ;
78 -> 82 ;
83 [label="mse = 0.0000\nsamples = 45\nOutflow = [ 0.02237705]", shape="box"] ;
82 -> 83 ;
84 [label="mse = 0.0000\nsamples = 15\nOutflow = [ 0.01833727]", shape="box"] ;
82 -> 84 ;
85 [label="mse = 0.0000\nsamples = 9\nOutflow = [ 0.02821097]", shape="box"] ;
77 -> 85 ;
86 [label="Inflow(28day) <= 0.0469\nmse = 0.000159294183428\nsamples = 72", shape="box"] ;
60 -> 86 ;
87 [label="Storage <= 0.7324\nmse = 5.51471569176e-05\nsamples = 61", shape="box"] ;
86 -> 87 ;
88 [label="Inflow(21day) <= 0.0496\nmse = 2.64727421244e-05\nsamples = 39", shape="box"] ;
87 -> 88 ;
89 [label="Inflow(14day) <= 0.0333\nmse = 1.16880735126e-05\nsamples = 27", shape="box"] ;
88 -> 89 ;
90 [label="mse = 0.0000\nsamples = 9\nOutflow = [ 0.02673013]", shape="box"] ;
89 -> 90 ;
91 [label="mse = 0.0000\nsamples = 18\nOutflow = [ 0.03192781]", shape="box"] ;
89 -> 91 ;
92 [label="Inflow(7day) <= 0.0323\nmse = 6.88960752405e-06\nsamples = 12", shape="box"] ;
88 -> 92 ;
93 [label="mse = 0.0000\nsamples = 6\nOutflow = [ 0.03728749]", shape="box"] ;
92 -> 93 ;
94 [label="mse = 0.0000\nsamples = 6\nOutflow = [ 0.04057721]", shape="box"] ;
92 -> 94 ;
95 [label="Inflow(14day) <= 0.0554\nmse = 1.46301886098e-05\nsamples = 22", shape="box"] ;
87 -> 95 ;
96 [label="Inflow(28day) <= 0.0354\nmse = 1.31583115094e-05\nsamples = 12", shape="box"] ;
95 -> 96 ;
97 [label="mse = 0.0000\nsamples = 7\nOutflow = [ 0.04411769]", shape="box"] ;
96 -> 97 ;
98 [label="mse = 0.0000\nsamples = 5\nOutflow = [ 0.04003575]", shape="box"] ;
96 -> 98 ;
99 [label="Inflow(7day) <= 0.0432\nmse = 9.36705273707e-07\nsamples = 10", shape="box"] ;
95 -> 99 ;
100 [label="mse = 0.0000\nsamples = 5\nOutflow = [ 0.04720806]", shape="box"] ;
99 -> 100 ;
101 [label="mse = 0.0000\nsamples = 5\nOutflow = [ 0.0482733]", shape="box"] ;
99 -> 101 ;
102 [label="Inflow(21day) <= 0.0494\nmse = 3.33020677954e-05\nsamples = 11", shape="box"] ;
86 -> 102 ;
103 [label="mse = 0.0000\nsamples = 6\nOutflow = [ 0.07047789]", shape="box"] ;
102 -> 103 ;
104 [label="mse = 0.0000\nsamples = 5\nOutflow = [ 0.06065132]", shape="box"] ;
102 -> 104 ;
}