digraph Tree {
0 [label="Inflow <= 1.5561\nmse = 0.326459950078\nsamples = 148", shape="box"] ;
1 [label="Inflow <= 0.8205\nmse = 0.115357108537\nsamples = 135", shape="box"] ;
0 -> 1 ;
2 [label="Inflow <= 0.5427\nmse = 0.0206746741042\nsamples = 75", shape="box"] ;
1 -> 2 ;
3 [label="Inflow <= 0.4122\nmse = 0.00505589362898\nsamples = 45", shape="box"] ;
2 -> 3 ;
4 [label="mse = 0.0012\nsamples = 22\nOutflow = [ 0.3517695]", shape="box"] ;
3 -> 4 ;
5 [label="mse = 0.0010\nsamples = 23\nOutflow = [ 0.47809296]", shape="box"] ;
3 -> 5 ;
6 [label="Inflow <= 0.6938\nmse = 0.00554073036692\nsamples = 30", shape="box"] ;
2 -> 6 ;
7 [label="mse = 0.0016\nsamples = 20\nOutflow = [ 0.62545957]", shape="box"] ;
6 -> 7 ;
8 [label="mse = 0.0016\nsamples = 10\nOutflow = [ 0.75863232]", shape="box"] ;
6 -> 8 ;
9 [label="Inflow <= 1.1149\nmse = 0.029471000434\nsamples = 60", shape="box"] ;
1 -> 9 ;
10 [label="Inflow <= 0.9838\nmse = 0.00735508695121\nsamples = 27", shape="box"] ;
9 -> 10 ;
11 [label="mse = 0.0013\nsamples = 17\nOutflow = [ 0.90777874]", shape="box"] ;
10 -> 11 ;
12 [label="mse = 0.0009\nsamples = 10\nOutflow = [ 1.07066751]", shape="box"] ;
10 -> 12 ;
13 [label="Inflow <= 1.3226\nmse = 0.0113827552651\nsamples = 33", shape="box"] ;
9 -> 13 ;
14 [label="mse = 0.0017\nsamples = 26\nOutflow = [ 1.20133785]", shape="box"] ;
13 -> 14 ;
15 [label="mse = 0.0029\nsamples = 7\nOutflow = [ 1.43861296]", shape="box"] ;
13 -> 15 ;
16 [label="Inflow <= 2.3706\nmse = 0.354511879366\nsamples = 13", shape="box"] ;
0 -> 16 ;
17 [label="mse = 0.0645\nsamples = 8\nOutflow = [ 1.92656367]", shape="box"] ;
16 -> 17 ;
18 [label="mse = 0.1497\nsamples = 5\nOutflow = [ 2.96908759]", shape="box"] ;
16 -> 18 ;
}