digraph Tree {
0 [label="Inflow <= 0.0157\nmse = 8.24968580428e-05\nsamples = 121", shape="box"] ;
1 [label="Inflow <= 0.0092\nmse = 1.2923954648e-05\nsamples = 96", shape="box"] ;
0 -> 1 ;
2 [label="Outflow(1month) <= 0.0033\nmse = 6.11338160544e-06\nsamples = 76", shape="box"] ;
1 -> 2 ;
3 [label="Outflow(1month) <= 0.0024\nmse = 3.66084449733e-06\nsamples = 12", shape="box"] ;
2 -> 3 ;
4 [label="mse = 0.0000\nsamples = 7\nOutflow = [ 0.00102937]", shape="box"] ;
3 -> 4 ;
5 [label="mse = 0.0000\nsamples = 5\nOutflow = [ 0.00341701]", shape="box"] ;
3 -> 5 ;
6 [label="Inflow <= 0.0046\nmse = 4.11876680727e-06\nsamples = 64", shape="box"] ;
2 -> 6 ;
7 [label="mse = 0.0000\nsamples = 17\nOutflow = [ 0.00404499]", shape="box"] ;
6 -> 7 ;
8 [label="mse = 0.0000\nsamples = 47\nOutflow = [ 0.0066621]", shape="box"] ;
6 -> 8 ;
9 [label="Inflow <= 0.0122\nmse = 5.11836785094e-06\nsamples = 20", shape="box"] ;
1 -> 9 ;
10 [label="Inflow <= 0.0103\nmse = 5.28080825551e-07\nsamples = 10", shape="box"] ;
9 -> 10 ;
11 [label="mse = 0.0000\nsamples = 5\nOutflow = [ 0.00960568]", shape="box"] ;
10 -> 11 ;
12 [label="mse = 0.0000\nsamples = 5\nOutflow = [ 0.01063592]", shape="box"] ;
10 -> 12 ;
13 [label="Storage <= 0.8754\nmse = 3.60694620342e-06\nsamples = 10", shape="box"] ;
9 -> 13 ;
14 [label="mse = 0.0000\nsamples = 5\nOutflow = [ 0.0124312]", shape="box"] ;
13 -> 14 ;
15 [label="mse = 0.0000\nsamples = 5\nOutflow = [ 0.01479708]", shape="box"] ;
13 -> 15 ;
16 [label="Inflow <= 0.0347\nmse = 9.56383106862e-05\nsamples = 25", shape="box"] ;
0 -> 16 ;
17 [label="Outflow(2month) <= 0.0175\nmse = 2.16710489398e-05\nsamples = 20", shape="box"] ;
16 -> 17 ;
18 [label="Inflow <= 0.0206\nmse = 5.83095364698e-06\nsamples = 13", shape="box"] ;
17 -> 18 ;
19 [label="mse = 0.0000\nsamples = 8\nOutflow = [ 0.01711445]", shape="box"] ;
18 -> 19 ;
20 [label="mse = 0.0000\nsamples = 5\nOutflow = [ 0.020078]", shape="box"] ;
18 -> 20 ;
21 [label="mse = 0.0000\nsamples = 7\nOutflow = [ 0.02386361]", shape="box"] ;
17 -> 21 ;
22 [label="mse = 0.0000\nsamples = 5\nOutflow = [ 0.04211304]", shape="box"] ;
16 -> 22 ;
}