digraph Tree {
0 [label="Storage <= 0.6582\nmse = 1.3170303576e-05\nsamples = 3151", shape="box"] ;
1 [label="Outflow(7day) <= 0.0023\nmse = 1.66323238407e-06\nsamples = 2901", shape="box"] ;
0 -> 1 ;
2 [label="Storage <= 0.6485\nmse = 2.33259156653e-07\nsamples = 2609", shape="box"] ;
1 -> 2 ;
3 [label="mse = 0.0000\nsamples = 2530\nOutflow = [ 0.00062084]", shape="box"] ;
2 -> 3 ;
4 [label="Inflow(7day) <= 0.0019\nmse = 3.46888969076e-06\nsamples = 79", shape="box"] ;
2 -> 4 ;
5 [label="Outflow(28day) <= 0.0018\nmse = 2.55038395831e-07\nsamples = 30", shape="box"] ;
4 -> 5 ;
6 [label="Outflow(28day) <= 0.0012\nmse = 4.76192232579e-07\nsamples = 12", shape="box"] ;
5 -> 6 ;
7 [label="mse = 0.0000\nsamples = 7\nOutflow = [ 0.00130521]", shape="box"] ;
6 -> 7 ;
8 [label="mse = 0.0000\nsamples = 5\nOutflow = [ 0.00213653]", shape="box"] ;
6 -> 8 ;
9 [label="mse = 0.0000\nsamples = 18\nOutflow = [ 0.00120344]", shape="box"] ;
5 -> 9 ;
10 [label="Inflow(28day) <= 0.0026\nmse = 4.66092895414e-06\nsamples = 49", shape="box"] ;
4 -> 10 ;
11 [label="Outflow(28day) <= 0.0013\nmse = 7.18407188383e-06\nsamples = 17", shape="box"] ;
10 -> 11 ;
12 [label="mse = 0.0000\nsamples = 12\nOutflow = [ 0.00300948]", shape="box"] ;
11 -> 12 ;
13 [label="mse = 0.0000\nsamples = 5\nOutflow = [ 0.00682085]", shape="box"] ;
11 -> 13 ;
14 [label="Outflow(7day) <= 0.0013\nmse = 1.90608214356e-06\nsamples = 32", shape="box"] ;
10 -> 14 ;
15 [label="mse = 0.0000\nsamples = 18\nOutflow = [ 0.00141053]", shape="box"] ;
14 -> 15 ;
16 [label="mse = 0.0000\nsamples = 14\nOutflow = [ 0.00301239]", shape="box"] ;
14 -> 16 ;
17 [label="Storage <= 0.6483\nmse = 7.18930313673e-06\nsamples = 292", shape="box"] ;
1 -> 17 ;
18 [label="Inflow(7day) <= 0.0052\nmse = 2.88994103542e-06\nsamples = 185", shape="box"] ;
17 -> 18 ;
19 [label="Inflow <= 0.0017\nmse = 1.27080825199e-06\nsamples = 144", shape="box"] ;
18 -> 19 ;
20 [label="Storage <= 0.6457\nmse = 5.02564246281e-07\nsamples = 81", shape="box"] ;
19 -> 20 ;
21 [label="mse = 0.0000\nsamples = 63\nOutflow = [ 0.00126455]", shape="box"] ;
20 -> 21 ;
22 [label="mse = 0.0000\nsamples = 18\nOutflow = [ 0.00199388]", shape="box"] ;
20 -> 22 ;
23 [label="Inflow(28day) <= 0.0023\nmse = 1.5550342347e-06\nsamples = 63", shape="box"] ;
19 -> 23 ;
24 [label="mse = 0.0000\nsamples = 6\nOutflow = [ 0.00432702]", shape="box"] ;
23 -> 24 ;
25 [label="mse = 0.0000\nsamples = 57\nOutflow = [ 0.00235739]", shape="box"] ;
23 -> 25 ;
26 [label="Inflow <= 0.0036\nmse = 3.90542469368e-06\nsamples = 41", shape="box"] ;
18 -> 26 ;
27 [label="Storage <= 0.6452\nmse = 3.1495286515e-06\nsamples = 26", shape="box"] ;
26 -> 27 ;
28 [label="mse = 0.0000\nsamples = 17\nOutflow = [ 0.00292422]", shape="box"] ;
27 -> 28 ;
29 [label="mse = 0.0000\nsamples = 9\nOutflow = [ 0.00476866]", shape="box"] ;
27 -> 29 ;
30 [label="Inflow(21day) <= 0.0074\nmse = 2.16096202311e-06\nsamples = 15", shape="box"] ;
26 -> 30 ;
31 [label="mse = 0.0000\nsamples = 8\nOutflow = [ 0.00513633]", shape="box"] ;
30 -> 31 ;
32 [label="mse = 0.0000\nsamples = 7\nOutflow = [ 0.00646729]", shape="box"] ;
30 -> 32 ;
33 [label="Inflow <= 0.0055\nmse = 9.40775475799e-06\nsamples = 107", shape="box"] ;
17 -> 33 ;
34 [label="Inflow(7day) <= 0.0071\nmse = 7.09129151959e-06\nsamples = 86", shape="box"] ;
33 -> 34 ;
35 [label="Outflow(28day) <= 0.0056\nmse = 5.97524489047e-06\nsamples = 71", shape="box"] ;
34 -> 35 ;
36 [label="mse = 0.0000\nsamples = 28\nOutflow = [ 0.00508715]", shape="box"] ;
35 -> 36 ;
37 [label="mse = 0.0000\nsamples = 43\nOutflow = [ 0.00340434]", shape="box"] ;
35 -> 37 ;
38 [label="Storage <= 0.6493\nmse = 5.12999763463e-06\nsamples = 15", shape="box"] ;
34 -> 38 ;
39 [label="mse = 0.0000\nsamples = 5\nOutflow = [ 0.00470723]", shape="box"] ;
38 -> 39 ;
40 [label="mse = 0.0000\nsamples = 10\nOutflow = [ 0.00819158]", shape="box"] ;
38 -> 40 ;
41 [label="Inflow(7day) <= 0.0048\nmse = 7.36874842244e-06\nsamples = 21", shape="box"] ;
33 -> 41 ;
42 [label="Inflow <= 0.0064\nmse = 4.59099791992e-06\nsamples = 10", shape="box"] ;
41 -> 42 ;
43 [label="mse = 0.0000\nsamples = 5\nOutflow = [ 0.00848155]", shape="box"] ;
42 -> 43 ;
44 [label="mse = 0.0000\nsamples = 5\nOutflow = [ 0.00542461]", shape="box"] ;
42 -> 44 ;
45 [label="Inflow <= 0.0066\nmse = 6.40255893116e-06\nsamples = 11", shape="box"] ;
41 -> 45 ;
46 [label="mse = 0.0000\nsamples = 5\nOutflow = [ 0.00820772]", shape="box"] ;
45 -> 46 ;
47 [label="mse = 0.0000\nsamples = 6\nOutflow = [ 0.01087178]", shape="box"] ;
45 -> 47 ;
48 [label="Outflow(7day) <= 0.0091\nmse = 5.93445349914e-05\nsamples = 250", shape="box"] ;
0 -> 48 ;
49 [label="Outflow(7day) <= 0.0021\nmse = 3.64986401446e-05\nsamples = 180", shape="box"] ;
48 -> 49 ;
50 [label="Outflow(21day) <= 0.0008\nmse = 1.79938863976e-05\nsamples = 68", shape="box"] ;
49 -> 50 ;
51 [label="Outflow(21day) <= 0.0006\nmse = 8.49024910024e-06\nsamples = 37", shape="box"] ;
50 -> 51 ;
52 [label="Inflow(7dayForecast) <= 0.0058\nmse = 1.15094785055e-07\nsamples = 12", shape="box"] ;
51 -> 52 ;
53 [label="mse = 0.0000\nsamples = 5\nOutflow = [ 0.00126297]", shape="box"] ;
52 -> 53 ;
54 [label="mse = 0.0000\nsamples = 7\nOutflow = [ 0.00070132]", shape="box"] ;
52 -> 54 ;
55 [label="Outflow(28day) <= 0.0006\nmse = 1.02919506852e-05\nsamples = 25", shape="box"] ;
51 -> 55 ;
56 [label="mse = 0.0000\nsamples = 6\nOutflow = [ 0.00690831]", shape="box"] ;
55 -> 56 ;
57 [label="mse = 0.0000\nsamples = 19\nOutflow = [ 0.00249037]", shape="box"] ;
55 -> 57 ;
58 [label="Inflow(21day) <= 0.0067\nmse = 2.2558345744e-05\nsamples = 31", shape="box"] ;
50 -> 58 ;
59 [label="Outflow(7day) <= 0.0015\nmse = 1.11892535673e-05\nsamples = 23", shape="box"] ;
58 -> 59 ;
60 [label="mse = 0.0000\nsamples = 10\nOutflow = [ 0.00699108]", shape="box"] ;
59 -> 60 ;
61 [label="mse = 0.0000\nsamples = 13\nOutflow = [ 0.00265304]", shape="box"] ;
59 -> 61 ;
62 [label="mse = 0.0000\nsamples = 8\nOutflow = [ 0.01109911]", shape="box"] ;
58 -> 62 ;
63 [label="Inflow <= 0.0142\nmse = 3.61670383554e-05\nsamples = 112", shape="box"] ;
49 -> 63 ;
64 [label="Inflow(7day) <= 0.0126\nmse = 2.99308620952e-05\nsamples = 92", shape="box"] ;
63 -> 64 ;
65 [label="Inflow(7day) <= 0.0069\nmse = 1.81593604762e-05\nsamples = 72", shape="box"] ;
64 -> 65 ;
66 [label="mse = 0.0000\nsamples = 23\nOutflow = [ 0.00595041]", shape="box"] ;
65 -> 66 ;
67 [label="mse = 0.0000\nsamples = 49\nOutflow = [ 0.01123446]", shape="box"] ;
65 -> 67 ;
68 [label="Inflow(7dayForecast) <= 0.0069\nmse = 1.97378566325e-05\nsamples = 20", shape="box"] ;
64 -> 68 ;
69 [label="mse = 0.0000\nsamples = 12\nOutflow = [ 0.015168]", shape="box"] ;
68 -> 69 ;
70 [label="mse = 0.0000\nsamples = 8\nOutflow = [ 0.02160409]", shape="box"] ;
68 -> 70 ;
71 [label="Outflow(7day) <= 0.0070\nmse = 8.17045458092e-06\nsamples = 20", shape="box"] ;
63 -> 71 ;
72 [label="Inflow(7dayForecast) <= 0.0161\nmse = 1.58481424355e-06\nsamples = 12", shape="box"] ;
71 -> 72 ;
73 [label="mse = 0.0000\nsamples = 7\nOutflow = [ 0.00076528]", shape="box"] ;
72 -> 73 ;
74 [label="mse = 0.0000\nsamples = 5\nOutflow = [ 0.002199]", shape="box"] ;
72 -> 74 ;
75 [label="mse = 0.0000\nsamples = 8\nOutflow = [ 0.00550921]", shape="box"] ;
71 -> 75 ;
76 [label="Inflow <= 0.0128\nmse = 3.85604079851e-05\nsamples = 70", shape="box"] ;
48 -> 76 ;
77 [label="Inflow(14day) <= 0.0099\nmse = 2.31070631605e-05\nsamples = 64", shape="box"] ;
76 -> 77 ;
78 [label="Storage <= 0.6641\nmse = 1.59966802257e-05\nsamples = 13", shape="box"] ;
77 -> 78 ;
79 [label="mse = 0.0000\nsamples = 5\nOutflow = [ 0.00981844]", shape="box"] ;
78 -> 79 ;
80 [label="mse = 0.0000\nsamples = 8\nOutflow = [ 0.01518188]", shape="box"] ;
78 -> 80 ;
81 [label="Storage <= 0.7121\nmse = 1.18855532914e-05\nsamples = 51", shape="box"] ;
77 -> 81 ;
82 [label="Inflow(14day) <= 0.0131\nmse = 4.72449070847e-06\nsamples = 23", shape="box"] ;
81 -> 82 ;
83 [label="mse = 0.0000\nsamples = 14\nOutflow = [ 0.01777798]", shape="box"] ;
82 -> 83 ;
84 [label="mse = 0.0000\nsamples = 9\nOutflow = [ 0.02066824]", shape="box"] ;
82 -> 84 ;
85 [label="Outflow(7day) <= 0.0154\nmse = 1.03907335336e-05\nsamples = 28", shape="box"] ;
81 -> 85 ;
86 [label="mse = 0.0000\nsamples = 15\nOutflow = [ 0.02132882]", shape="box"] ;
85 -> 86 ;
87 [label="mse = 0.0000\nsamples = 13\nOutflow = [ 0.02482803]", shape="box"] ;
85 -> 87 ;
88 [label="mse = 0.0000\nsamples = 6\nOutflow = [ 0.00506019]", shape="box"] ;
76 -> 88 ;
}