digraph Tree {
0 [label="Spring <= 0.5000\nmse = 4.06500099618\nsamples = 139", shape="box"] ;
1 [label="Inflow <= 0.1806\nmse = 0.0060888106742\nsamples = 106", shape="box"] ;
0 -> 1 ;
2 [label="Inflow <= 0.0887\nmse = 0.00117752373543\nsamples = 99", shape="box"] ;
1 -> 2 ;
3 [label="Inflow <= 0.0474\nmse = 0.000330677975656\nsamples = 86", shape="box"] ;
2 -> 3 ;
4 [label="mse = 0.0001\nsamples = 52\nOutflow = [ 0.03117293]", shape="box"] ;
3 -> 4 ;
5 [label="mse = 0.0001\nsamples = 34\nOutflow = [ 0.06328809]", shape="box"] ;
3 -> 5 ;
6 [label="Inflow <= 0.1260\nmse = 0.000475080861468\nsamples = 13", shape="box"] ;
2 -> 6 ;
7 [label="mse = 0.0001\nsamples = 6\nOutflow = [ 0.10829534]", shape="box"] ;
6 -> 7 ;
8 [label="mse = 0.0001\nsamples = 7\nOutflow = [ 0.14686135]", shape="box"] ;
6 -> 8 ;
9 [label="mse = 0.0199\nsamples = 7\nOutflow = [ 0.29916101]", shape="box"] ;
1 -> 9 ;
10 [label="Storage <= 0.9344\nmse = 16.6573050082\nsamples = 33", shape="box"] ;
0 -> 10 ;
11 [label="Inflow <= 0.0642\nmse = 40.4154172536\nsamples = 13", shape="box"] ;
10 -> 11 ;
12 [label="mse = 0.0001\nsamples = 8\nOutflow = [ 0.05328402]", shape="box"] ;
11 -> 12 ;
13 [label="mse = 90.9409\nsamples = 5\nOutflow = [ 4.84659859]", shape="box"] ;
11 -> 13 ;
14 [label="Inflow <= 0.1782\nmse = 0.00619838741386\nsamples = 20", shape="box"] ;
10 -> 14 ;
15 [label="Inflow <= 0.0895\nmse = 0.00167483432027\nsamples = 13", shape="box"] ;
14 -> 15 ;
16 [label="mse = 0.0005\nsamples = 5\nOutflow = [ 0.0487378]", shape="box"] ;
15 -> 16 ;
17 [label="mse = 0.0002\nsamples = 8\nOutflow = [ 0.12413587]", shape="box"] ;
15 -> 17 ;
18 [label="mse = 0.0011\nsamples = 7\nOutflow = [ 0.23901264]", shape="box"] ;
14 -> 18 ;
}