digraph Tree {
0 [label="Inflow <= 0.0189\nmse = 7.22004464264e-05\nsamples = 148", shape="box"] ;
1 [label="Inflow <= 0.0113\nmse = 1.21459412603e-05\nsamples = 128", shape="box"] ;
0 -> 1 ;
2 [label="Inflow(2month) <= 0.0073\nmse = 4.60859917114e-06\nsamples = 108", shape="box"] ;
1 -> 2 ;
3 [label="Outflow(1month) <= 0.0047\nmse = 3.46141655491e-06\nsamples = 76", shape="box"] ;
2 -> 3 ;
4 [label="mse = 0.0000\nsamples = 35\nOutflow = [ 0.00387765]", shape="box"] ;
3 -> 4 ;
5 [label="mse = 0.0000\nsamples = 41\nOutflow = [ 0.00559447]", shape="box"] ;
3 -> 5 ;
6 [label="Inflow(1month) <= 0.0118\nmse = 1.91679204716e-06\nsamples = 32", shape="box"] ;
2 -> 6 ;
7 [label="mse = 0.0000\nsamples = 24\nOutflow = [ 0.0071298]", shape="box"] ;
6 -> 7 ;
8 [label="mse = 0.0000\nsamples = 8\nOutflow = [ 0.00892326]", shape="box"] ;
6 -> 8 ;
9 [label="Inflow(2month) <= 0.0221\nmse = 1.34816532251e-05\nsamples = 20", shape="box"] ;
1 -> 9 ;
10 [label="Inflow <= 0.0147\nmse = 6.33209804641e-06\nsamples = 15", shape="box"] ;
9 -> 10 ;
11 [label="mse = 0.0000\nsamples = 7\nOutflow = [ 0.00968885]", shape="box"] ;
10 -> 11 ;
12 [label="mse = 0.0000\nsamples = 8\nOutflow = [ 0.0123352]", shape="box"] ;
10 -> 12 ;
13 [label="mse = 0.0000\nsamples = 5\nOutflow = [ 0.01652475]", shape="box"] ;
9 -> 13 ;
14 [label="Inflow <= 0.0287\nmse = 0.000142084380561\nsamples = 20", shape="box"] ;
0 -> 14 ;
15 [label="Inflow <= 0.0239\nmse = 2.68273224859e-05\nsamples = 15", shape="box"] ;
14 -> 15 ;
16 [label="mse = 0.0000\nsamples = 9\nOutflow = [ 0.01870707]", shape="box"] ;
15 -> 16 ;
17 [label="mse = 0.0000\nsamples = 6\nOutflow = [ 0.02547745]", shape="box"] ;
15 -> 17 ;
18 [label="mse = 0.0003\nsamples = 5\nOutflow = [ 0.03880002]", shape="box"] ;
14 -> 18 ;
}