digraph Tree {
0 [label="Inflow(7day) <= 0.0165\nmse = 2.0550968936e-05\nsamples = 3960", shape="box"] ;
1 [label="Outflow(7day) <= 0.0049\nmse = 9.32741368104e-06\nsamples = 3900", shape="box"] ;
0 -> 1 ;
2 [label="Outflow(7day) <= 0.0029\nmse = 3.16928633755e-06\nsamples = 3076", shape="box"] ;
1 -> 2 ;
3 [label="Outflow(7day) <= 0.0017\nmse = 1.3602761211e-06\nsamples = 2051", shape="box"] ;
2 -> 3 ;
4 [label="mse = 0.0000\nsamples = 692\nOutflow = [ 0.00118993]", shape="box"] ;
3 -> 4 ;
5 [label="mse = 0.0000\nsamples = 1359\nOutflow = [ 0.00231138]", shape="box"] ;
3 -> 5 ;
6 [label="Inflow <= 0.0163\nmse = 4.24737499921e-06\nsamples = 1025", shape="box"] ;
2 -> 6 ;
7 [label="mse = 0.0000\nsamples = 1018\nOutflow = [ 0.00382135]", shape="box"] ;
6 -> 7 ;
8 [label="mse = 0.0000\nsamples = 7\nOutflow = [ 0.01320304]", shape="box"] ;
6 -> 8 ;
9 [label="Inflow <= 0.0121\nmse = 1.58694879053e-05\nsamples = 824", shape="box"] ;
1 -> 9 ;
10 [label="Inflow(7day) <= 0.0089\nmse = 6.80023991065e-06\nsamples = 741", shape="box"] ;
9 -> 10 ;
11 [label="mse = 0.0000\nsamples = 568\nOutflow = [ 0.00559484]", shape="box"] ;
10 -> 11 ;
12 [label="mse = 0.0000\nsamples = 173\nOutflow = [ 0.00903053]", shape="box"] ;
10 -> 12 ;
13 [label="Inflow(7dayForecast) <= 0.0195\nmse = 4.65797500857e-05\nsamples = 83", shape="box"] ;
9 -> 13 ;
14 [label="mse = 0.0000\nsamples = 74\nOutflow = [ 0.01259217]", shape="box"] ;
13 -> 14 ;
15 [label="mse = 0.0001\nsamples = 9\nOutflow = [ 0.02440157]", shape="box"] ;
13 -> 15 ;
16 [label="Inflow <= 0.0270\nmse = 0.000259513113359\nsamples = 60", shape="box"] ;
0 -> 16 ;
17 [label="Inflow(7day) <= 0.0316\nmse = 9.53175485771e-05\nsamples = 48", shape="box"] ;
16 -> 17 ;
18 [label="Inflow <= 0.0155\nmse = 4.08531660559e-05\nsamples = 39", shape="box"] ;
17 -> 18 ;
19 [label="mse = 0.0000\nsamples = 27\nOutflow = [ 0.01351246]", shape="box"] ;
18 -> 19 ;
20 [label="mse = 0.0000\nsamples = 12\nOutflow = [ 0.02261323]", shape="box"] ;
18 -> 20 ;
21 [label="mse = 0.0001\nsamples = 9\nOutflow = [ 0.03407808]", shape="box"] ;
17 -> 21 ;
22 [label="Storage <= 0.8274\nmse = 0.000141729816424\nsamples = 12", shape="box"] ;
16 -> 22 ;
23 [label="mse = 0.0000\nsamples = 6\nOutflow = [ 0.04155798]", shape="box"] ;
22 -> 23 ;
24 [label="mse = 0.0001\nsamples = 6\nOutflow = [ 0.05996148]", shape="box"] ;
22 -> 24 ;
}