digraph Tree {
0 [label="Inflow <= 0.0157\nmse = 9.1522608713e-05\nsamples = 4331", shape="box"] ;
1 [label="Inflow <= 0.0072\nmse = 3.08308505228e-05\nsamples = 2467", shape="box"] ;
0 -> 1 ;
2 [label="Outflow(7day) <= 0.0055\nmse = 1.15324234172e-05\nsamples = 1247", shape="box"] ;
1 -> 2 ;
3 [label="Outflow(7day) <= 0.0029\nmse = 4.55274262192e-06\nsamples = 676", shape="box"] ;
2 -> 3 ;
4 [label="mse = 0.0000\nsamples = 236\nOutflow = [ 0.0020783]", shape="box"] ;
3 -> 4 ;
5 [label="mse = 0.0000\nsamples = 440\nOutflow = [ 0.00399115]", shape="box"] ;
3 -> 5 ;
6 [label="Inflow <= 0.0052\nmse = 1.49402761234e-05\nsamples = 571", shape="box"] ;
2 -> 6 ;
7 [label="mse = 0.0000\nsamples = 344\nOutflow = [ 0.00545814]", shape="box"] ;
6 -> 7 ;
8 [label="mse = 0.0000\nsamples = 227\nOutflow = [ 0.00761624]", shape="box"] ;
6 -> 8 ;
9 [label="Outflow(7day) <= 0.0102\nmse = 2.93250856139e-05\nsamples = 1220", shape="box"] ;
1 -> 9 ;
10 [label="Outflow(7day) <= 0.0038\nmse = 1.94110098011e-05\nsamples = 525", shape="box"] ;
9 -> 10 ;
11 [label="mse = 0.0000\nsamples = 97\nOutflow = [ 0.00422932]", shape="box"] ;
10 -> 11 ;
12 [label="mse = 0.0000\nsamples = 428\nOutflow = [ 0.0097025]", shape="box"] ;
10 -> 12 ;
13 [label="Inflow(7day) <= 0.0348\nmse = 2.8636057258e-05\nsamples = 695", shape="box"] ;
9 -> 13 ;
14 [label="mse = 0.0000\nsamples = 686\nOutflow = [ 0.01282584]", shape="box"] ;
13 -> 14 ;
15 [label="mse = 0.0000\nsamples = 9\nOutflow = [ 0.03018671]", shape="box"] ;
13 -> 15 ;
16 [label="Inflow <= 0.0232\nmse = 4.21785392079e-05\nsamples = 1864", shape="box"] ;
0 -> 16 ;
17 [label="Outflow(7day) <= 0.0202\nmse = 2.11460558376e-05\nsamples = 998", shape="box"] ;
16 -> 17 ;
18 [label="Outflow(7day) <= 0.0067\nmse = 1.46496975489e-05\nsamples = 708", shape="box"] ;
17 -> 18 ;
19 [label="mse = 0.0000\nsamples = 27\nOutflow = [ 0.01108693]", shape="box"] ;
18 -> 19 ;
20 [label="mse = 0.0000\nsamples = 681\nOutflow = [ 0.0182549]", shape="box"] ;
18 -> 20 ;
21 [label="Outflow(28day) <= 0.0158\nmse = 2.6136839608e-05\nsamples = 290", shape="box"] ;
17 -> 21 ;
22 [label="mse = 0.0001\nsamples = 23\nOutflow = [ 0.03003804]", shape="box"] ;
21 -> 22 ;
23 [label="mse = 0.0000\nsamples = 267\nOutflow = [ 0.02119441]", shape="box"] ;
21 -> 23 ;
24 [label="Inflow <= 0.0277\nmse = 2.93111654484e-05\nsamples = 866", shape="box"] ;
16 -> 24 ;
25 [label="Outflow(7day) <= 0.0252\nmse = 1.75889155165e-05\nsamples = 431", shape="box"] ;
24 -> 25 ;
26 [label="mse = 0.0000\nsamples = 254\nOutflow = [ 0.02351534]", shape="box"] ;
25 -> 26 ;
27 [label="mse = 0.0000\nsamples = 177\nOutflow = [ 0.02691051]", shape="box"] ;
25 -> 27 ;
28 [label="Inflow(7day) <= 0.0301\nmse = 2.82580296017e-05\nsamples = 435", shape="box"] ;
24 -> 28 ;
29 [label="mse = 0.0000\nsamples = 288\nOutflow = [ 0.02852891]", shape="box"] ;
28 -> 29 ;
30 [label="mse = 0.0000\nsamples = 147\nOutflow = [ 0.03274814]", shape="box"] ;
28 -> 30 ;
}