digraph Tree {
0 [label="Inflow <= 0.0157\nmse = 9.1522608713e-05\nsamples = 4331", shape="box"] ;
1 [label="Inflow <= 0.0072\nmse = 3.08308505228e-05\nsamples = 2467", shape="box"] ;
0 -> 1 ;
2 [label="Outflow(7day) <= 0.0055\nmse = 1.15324234172e-05\nsamples = 1247", shape="box"] ;
1 -> 2 ;
3 [label="Outflow(7day) <= 0.0029\nmse = 4.55274262192e-06\nsamples = 676", shape="box"] ;
2 -> 3 ;
4 [label="Outflow(7day) <= 0.0018\nmse = 1.83220676023e-06\nsamples = 236", shape="box"] ;
3 -> 4 ;
5 [label="Outflow(7day) <= 0.0007\nmse = 1.18897249583e-06\nsamples = 134", shape="box"] ;
4 -> 5 ;
6 [label="mse = 0.0000\nsamples = 14\nOutflow = [ 0.00047715]", shape="box"] ;
5 -> 6 ;
7 [label="mse = 0.0000\nsamples = 120\nOutflow = [ 0.00179138]", shape="box"] ;
5 -> 7 ;
8 [label="Outflow(21day) <= 0.0022\nmse = 2.13019313781e-06\nsamples = 102", shape="box"] ;
4 -> 8 ;
9 [label="mse = 0.0000\nsamples = 9\nOutflow = [ 0.00521576]", shape="box"] ;
8 -> 9 ;
10 [label="mse = 0.0000\nsamples = 93\nOutflow = [ 0.00238594]", shape="box"] ;
8 -> 10 ;
11 [label="Storage <= 0.8541\nmse = 4.73453430726e-06\nsamples = 440", shape="box"] ;
3 -> 11 ;
12 [label="Inflow(7dayForecast) <= 0.0027\nmse = 1.56517461232e-06\nsamples = 195", shape="box"] ;
11 -> 12 ;
13 [label="mse = 0.0000\nsamples = 25\nOutflow = [ 0.00211493]", shape="box"] ;
12 -> 13 ;
14 [label="mse = 0.0000\nsamples = 170\nOutflow = [ 0.00363507]", shape="box"] ;
12 -> 14 ;
15 [label="Inflow(14day) <= 0.0049\nmse = 6.82315129949e-06\nsamples = 245", shape="box"] ;
11 -> 15 ;
16 [label="mse = 0.0000\nsamples = 136\nOutflow = [ 0.00497428]", shape="box"] ;
15 -> 16 ;
17 [label="mse = 0.0000\nsamples = 109\nOutflow = [ 0.00375019]", shape="box"] ;
15 -> 17 ;
18 [label="Inflow <= 0.0052\nmse = 1.49402761234e-05\nsamples = 571", shape="box"] ;
2 -> 18 ;
19 [label="Storage <= 0.8563\nmse = 1.12959468774e-05\nsamples = 344", shape="box"] ;
18 -> 19 ;
20 [label="Storage <= 0.8377\nmse = 7.36107844648e-06\nsamples = 128", shape="box"] ;
19 -> 20 ;
21 [label="mse = 0.0000\nsamples = 13\nOutflow = [ 0.00745091]", shape="box"] ;
20 -> 21 ;
22 [label="mse = 0.0000\nsamples = 115\nOutflow = [ 0.00378896]", shape="box"] ;
20 -> 22 ;
23 [label="Storage <= 0.9788\nmse = 1.20394674377e-05\nsamples = 216", shape="box"] ;
19 -> 23 ;
24 [label="mse = 0.0000\nsamples = 176\nOutflow = [ 0.00695614]", shape="box"] ;
23 -> 24 ;
25 [label="mse = 0.0000\nsamples = 40\nOutflow = [ 0.00301819]", shape="box"] ;
23 -> 25 ;
26 [label="Inflow(7dayForecast) <= 0.0154\nmse = 1.76571165764e-05\nsamples = 227", shape="box"] ;
18 -> 26 ;
27 [label="Storage <= 0.8541\nmse = 9.56124456256e-06\nsamples = 202", shape="box"] ;
26 -> 27 ;
28 [label="mse = 0.0000\nsamples = 63\nOutflow = [ 0.00594416]", shape="box"] ;
27 -> 28 ;
29 [label="mse = 0.0000\nsamples = 139\nOutflow = [ 0.00764153]", shape="box"] ;
27 -> 29 ;
30 [label="Outflow(7day) <= 0.0180\nmse = 6.44293260966e-05\nsamples = 25", shape="box"] ;
26 -> 30 ;
31 [label="mse = 0.0000\nsamples = 14\nOutflow = [ 0.00744639]", shape="box"] ;
30 -> 31 ;
32 [label="mse = 0.0001\nsamples = 11\nOutflow = [ 0.01708922]", shape="box"] ;
30 -> 32 ;
33 [label="Outflow(7day) <= 0.0102\nmse = 2.93250856139e-05\nsamples = 1220", shape="box"] ;
1 -> 33 ;
34 [label="Outflow(7day) <= 0.0038\nmse = 1.94110098011e-05\nsamples = 525", shape="box"] ;
33 -> 34 ;
35 [label="Storage <= 0.9804\nmse = 1.020782146e-05\nsamples = 97", shape="box"] ;
34 -> 35 ;
36 [label="Spring <= 0.5000\nmse = 7.64583269528e-06\nsamples = 92", shape="box"] ;
35 -> 36 ;
37 [label="mse = 0.0000\nsamples = 49\nOutflow = [ 0.00479402]", shape="box"] ;
36 -> 37 ;
38 [label="mse = 0.0000\nsamples = 43\nOutflow = [ 0.00284818]", shape="box"] ;
36 -> 38 ;
39 [label="mse = 0.0000\nsamples = 5\nOutflow = [ 0.01057303]", shape="box"] ;
35 -> 39 ;
40 [label="Inflow <= 0.0095\nmse = 1.59621024049e-05\nsamples = 428", shape="box"] ;
34 -> 40 ;
41 [label="Inflow(7day) <= 0.0051\nmse = 7.26664480829e-06\nsamples = 211", shape="box"] ;
40 -> 41 ;
42 [label="mse = 0.0000\nsamples = 29\nOutflow = [ 0.0057227]", shape="box"] ;
41 -> 42 ;
43 [label="mse = 0.0000\nsamples = 182\nOutflow = [ 0.00842293]", shape="box"] ;
41 -> 43 ;
44 [label="Outflow(28day) <= 0.0028\nmse = 1.91915314173e-05\nsamples = 217", shape="box"] ;
40 -> 44 ;
45 [label="mse = 0.0001\nsamples = 5\nOutflow = [ 0.02099633]", shape="box"] ;
44 -> 45 ;
46 [label="mse = 0.0000\nsamples = 212\nOutflow = [ 0.01107904]", shape="box"] ;
44 -> 46 ;
47 [label="Inflow(7day) <= 0.0348\nmse = 2.8636057258e-05\nsamples = 695", shape="box"] ;
33 -> 47 ;
48 [label="Inflow(7day) <= 0.0183\nmse = 2.47586104094e-05\nsamples = 686", shape="box"] ;
47 -> 48 ;
49 [label="Inflow <= 0.0106\nmse = 1.35950318186e-05\nsamples = 536", shape="box"] ;
48 -> 49 ;
50 [label="mse = 0.0000\nsamples = 193\nOutflow = [ 0.0101294]", shape="box"] ;
49 -> 50 ;
51 [label="mse = 0.0000\nsamples = 343\nOutflow = [ 0.01309402]", shape="box"] ;
49 -> 51 ;
52 [label="Inflow(14day) <= 0.0131\nmse = 5.42091451874e-05\nsamples = 150", shape="box"] ;
48 -> 52 ;
53 [label="mse = 0.0000\nsamples = 7\nOutflow = [ 0.0322959]", shape="box"] ;
52 -> 53 ;
54 [label="mse = 0.0000\nsamples = 143\nOutflow = [ 0.01486874]", shape="box"] ;
52 -> 54 ;
55 [label="mse = 0.0000\nsamples = 9\nOutflow = [ 0.03018671]", shape="box"] ;
47 -> 55 ;
56 [label="Inflow <= 0.0232\nmse = 4.21785392079e-05\nsamples = 1864", shape="box"] ;
0 -> 56 ;
57 [label="Outflow(7day) <= 0.0202\nmse = 2.11460558376e-05\nsamples = 998", shape="box"] ;
56 -> 57 ;
58 [label="Outflow(7day) <= 0.0067\nmse = 1.46496975489e-05\nsamples = 708", shape="box"] ;
57 -> 58 ;
59 [label="Inflow(7dayForecast) <= 0.0082\nmse = 3.97508589541e-05\nsamples = 27", shape="box"] ;
58 -> 59 ;
60 [label="mse = 0.0000\nsamples = 8\nOutflow = [ 0.0068714]", shape="box"] ;
59 -> 60 ;
61 [label="Inflow(7day) <= 0.0056\nmse = 3.58965115495e-05\nsamples = 19", shape="box"] ;
59 -> 61 ;
62 [label="mse = 0.0000\nsamples = 8\nOutflow = [ 0.01636713]", shape="box"] ;
61 -> 62 ;
63 [label="mse = 0.0000\nsamples = 11\nOutflow = [ 0.01031261]", shape="box"] ;
61 -> 63 ;
64 [label="Inflow <= 0.0168\nmse = 1.16950986087e-05\nsamples = 681", shape="box"] ;
58 -> 64 ;
65 [label="Inflow(7day) <= 0.0185\nmse = 7.09427593371e-06\nsamples = 115", shape="box"] ;
64 -> 65 ;
66 [label="mse = 0.0000\nsamples = 97\nOutflow = [ 0.01566442]", shape="box"] ;
65 -> 66 ;
67 [label="mse = 0.0000\nsamples = 18\nOutflow = [ 0.01788771]", shape="box"] ;
65 -> 67 ;
68 [label="Outflow(7day) <= 0.0129\nmse = 1.14005635087e-05\nsamples = 566", shape="box"] ;
64 -> 68 ;
69 [label="mse = 0.0000\nsamples = 63\nOutflow = [ 0.01677801]", shape="box"] ;
68 -> 69 ;
70 [label="mse = 0.0000\nsamples = 503\nOutflow = [ 0.01895257]", shape="box"] ;
68 -> 70 ;
71 [label="Outflow(28day) <= 0.0158\nmse = 2.6136839608e-05\nsamples = 290", shape="box"] ;
57 -> 71 ;
72 [label="Storage <= 0.8624\nmse = 5.78860662751e-05\nsamples = 23", shape="box"] ;
71 -> 72 ;
73 [label="mse = 0.0001\nsamples = 5\nOutflow = [ 0.0195369]", shape="box"] ;
72 -> 73 ;
74 [label="Inflow(7day) <= 0.0251\nmse = 1.61751684628e-05\nsamples = 18", shape="box"] ;
72 -> 74 ;
75 [label="mse = 0.0000\nsamples = 5\nOutflow = [ 0.02930864]", shape="box"] ;
74 -> 75 ;
76 [label="mse = 0.0000\nsamples = 13\nOutflow = [ 0.03435747]", shape="box"] ;
74 -> 76 ;
77 [label="Outflow(7day) <= 0.0341\nmse = 1.71990424647e-05\nsamples = 267", shape="box"] ;
71 -> 77 ;
78 [label="Inflow <= 0.0191\nmse = 1.30997573278e-05\nsamples = 259", shape="box"] ;
77 -> 78 ;
79 [label="mse = 0.0000\nsamples = 58\nOutflow = [ 0.01788894]", shape="box"] ;
78 -> 79 ;
80 [label="mse = 0.0000\nsamples = 201\nOutflow = [ 0.0217179]", shape="box"] ;
78 -> 80 ;
81 [label="mse = 0.0000\nsamples = 8\nOutflow = [ 0.0320062]", shape="box"] ;
77 -> 81 ;
82 [label="Inflow <= 0.0277\nmse = 2.93111654484e-05\nsamples = 866", shape="box"] ;
56 -> 82 ;
83 [label="Outflow(7day) <= 0.0252\nmse = 1.75889155165e-05\nsamples = 431", shape="box"] ;
82 -> 83 ;
84 [label="Outflow(7day) <= 0.0197\nmse = 1.50207104951e-05\nsamples = 254", shape="box"] ;
83 -> 84 ;
85 [label="Storage <= 0.9857\nmse = 2.55524841496e-05\nsamples = 76", shape="box"] ;
84 -> 85 ;
86 [label="mse = 0.0000\nsamples = 61\nOutflow = [ 0.02032144]", shape="box"] ;
85 -> 86 ;
87 [label="mse = 0.0000\nsamples = 15\nOutflow = [ 0.02551995]", shape="box"] ;
85 -> 87 ;
88 [label="Inflow(7dayForecast) <= 0.0283\nmse = 7.66061938619e-06\nsamples = 178", shape="box"] ;
84 -> 88 ;
89 [label="mse = 0.0000\nsamples = 172\nOutflow = [ 0.02422593]", shape="box"] ;
88 -> 89 ;
90 [label="mse = 0.0000\nsamples = 6\nOutflow = [ 0.03060491]", shape="box"] ;
88 -> 90 ;
91 [label="Winter <= 0.5000\nmse = 1.44810847884e-05\nsamples = 177", shape="box"] ;
83 -> 91 ;
92 [label="Inflow <= 0.0257\nmse = 8.09483853063e-06\nsamples = 151", shape="box"] ;
91 -> 92 ;
93 [label="mse = 0.0000\nsamples = 39\nOutflow = [ 0.02411558]", shape="box"] ;
92 -> 93 ;
94 [label="mse = 0.0000\nsamples = 112\nOutflow = [ 0.02684361]", shape="box"] ;
92 -> 94 ;
95 [label="Storage <= 0.8611\nmse = 2.80381424547e-05\nsamples = 26", shape="box"] ;
91 -> 95 ;
96 [label="mse = 0.0000\nsamples = 9\nOutflow = [ 0.0268046]", shape="box"] ;
95 -> 96 ;
97 [label="mse = 0.0000\nsamples = 17\nOutflow = [ 0.03381923]", shape="box"] ;
95 -> 97 ;
98 [label="Inflow(7day) <= 0.0301\nmse = 2.82580296017e-05\nsamples = 435", shape="box"] ;
82 -> 98 ;
99 [label="Outflow(14day) <= 0.0051\nmse = 3.22314311883e-05\nsamples = 288", shape="box"] ;
98 -> 99 ;
100 [label="mse = 0.0000\nsamples = 8\nOutflow = [ 0.01755796]", shape="box"] ;
99 -> 100 ;
101 [label="Inflow <= 0.0319\nmse = 2.8391812527e-05\nsamples = 280", shape="box"] ;
99 -> 101 ;
102 [label="mse = 0.0000\nsamples = 183\nOutflow = [ 0.02774062]", shape="box"] ;
101 -> 102 ;
103 [label="mse = 0.0000\nsamples = 97\nOutflow = [ 0.0309209]", shape="box"] ;
101 -> 103 ;
104 [label="Inflow(7day) <= 0.0337\nmse = 8.68727867058e-06\nsamples = 147", shape="box"] ;
98 -> 104 ;
105 [label="Inflow <= 0.0324\nmse = 9.77051620355e-06\nsamples = 88", shape="box"] ;
104 -> 105 ;
106 [label="mse = 0.0000\nsamples = 55\nOutflow = [ 0.03076478]", shape="box"] ;
105 -> 106 ;
107 [label="mse = 0.0000\nsamples = 33\nOutflow = [ 0.03311594]", shape="box"] ;
105 -> 107 ;
108 [label="Inflow(7dayForecast) <= 0.0351\nmse = 2.56128058842e-06\nsamples = 59", shape="box"] ;
104 -> 108 ;
109 [label="mse = 0.0000\nsamples = 43\nOutflow = [ 0.03486557]", shape="box"] ;
108 -> 109 ;
110 [label="mse = 0.0000\nsamples = 16\nOutflow = [ 0.03311681]", shape="box"] ;
108 -> 110 ;
}