digraph Tree {
0 [label="Inflow(7day) <= 0.0248\nmse = 2.12779424953e-05\nsamples = 3315", shape="box"] ;
1 [label="Inflow(7day) <= 0.0097\nmse = 9.36919195994e-06\nsamples = 3287", shape="box"] ;
0 -> 1 ;
2 [label="Outflow(7day) <= 0.0017\nmse = 1.51716749758e-06\nsamples = 3110", shape="box"] ;
1 -> 2 ;
3 [label="Outflow(7day) <= 0.0006\nmse = 5.78086410659e-07\nsamples = 2603", shape="box"] ;
2 -> 3 ;
4 [label="mse = 0.0000\nsamples = 1186\nOutflow = [ 0.0003596]", shape="box"] ;
3 -> 4 ;
5 [label="mse = 0.0000\nsamples = 1417\nOutflow = [ 0.00115503]", shape="box"] ;
3 -> 5 ;
6 [label="Inflow(7day) <= 0.0072\nmse = 4.23237744581e-06\nsamples = 507", shape="box"] ;
2 -> 6 ;
7 [label="mse = 0.0000\nsamples = 449\nOutflow = [ 0.00202517]", shape="box"] ;
6 -> 7 ;
8 [label="mse = 0.0000\nsamples = 58\nOutflow = [ 0.00511748]", shape="box"] ;
6 -> 8 ;
9 [label="Outflow(7day) <= 0.0016\nmse = 6.96712398021e-05\nsamples = 177", shape="box"] ;
1 -> 9 ;
10 [label="Storage <= 0.6583\nmse = 2.92043444024e-06\nsamples = 43", shape="box"] ;
9 -> 10 ;
11 [label="mse = 0.0000\nsamples = 37\nOutflow = [ 0.00049735]", shape="box"] ;
10 -> 11 ;
12 [label="mse = 0.0000\nsamples = 6\nOutflow = [ 0.00374378]", shape="box"] ;
10 -> 12 ;
13 [label="Inflow(7day) <= 0.0144\nmse = 5.5519700938e-05\nsamples = 134", shape="box"] ;
9 -> 13 ;
14 [label="mse = 0.0000\nsamples = 73\nOutflow = [ 0.00986619]", shape="box"] ;
13 -> 14 ;
15 [label="mse = 0.0001\nsamples = 61\nOutflow = [ 0.01686202]", shape="box"] ;
13 -> 15 ;
16 [label="Inflow(7day) <= 0.0402\nmse = 0.00016249514998\nsamples = 28", shape="box"] ;
0 -> 16 ;
17 [label="Inflow(14day) <= 0.0254\nmse = 0.000110965067664\nsamples = 21", shape="box"] ;
16 -> 17 ;
18 [label="Inflow(21day) <= 0.0149\nmse = 7.93407876866e-05\nsamples = 16", shape="box"] ;
17 -> 18 ;
19 [label="mse = 0.0001\nsamples = 5\nOutflow = [ 0.02678875]", shape="box"] ;
18 -> 19 ;
20 [label="mse = 0.0000\nsamples = 11\nOutflow = [ 0.04019387]", shape="box"] ;
18 -> 20 ;
21 [label="mse = 0.0000\nsamples = 5\nOutflow = [ 0.02105733]", shape="box"] ;
17 -> 21 ;
22 [label="mse = 0.0001\nsamples = 7\nOutflow = [ 0.05122611]", shape="box"] ;
16 -> 22 ;
}