digraph Tree {
0 [label="Outflow(7day) <= 0.0076\nmse = 3.57835766773e-05\nsamples = 3933", shape="box"] ;
1 [label="Outflow(7day) <= 0.0027\nmse = 4.56161888047e-06\nsamples = 2710", shape="box"] ;
0 -> 1 ;
2 [label="Outflow(7day) <= 0.0012\nmse = 7.28991541569e-07\nsamples = 1982", shape="box"] ;
1 -> 2 ;
3 [label="Outflow(7day) <= 0.0004\nmse = 1.89598145302e-07\nsamples = 1640", shape="box"] ;
2 -> 3 ;
4 [label="mse = 0.0000\nsamples = 1116\nOutflow = [ 0.00024717]", shape="box"] ;
3 -> 4 ;
5 [label="mse = 0.0000\nsamples = 524\nOutflow = [ 0.00074841]", shape="box"] ;
3 -> 5 ;
6 [label="Inflow(7day) <= 0.0118\nmse = 1.08885243577e-06\nsamples = 342", shape="box"] ;
2 -> 6 ;
7 [label="mse = 0.0000\nsamples = 336\nOutflow = [ 0.00196677]", shape="box"] ;
6 -> 7 ;
8 [label="mse = 0.0000\nsamples = 6\nOutflow = [ 0.0065838]", shape="box"] ;
6 -> 8 ;
9 [label="Outflow(7day) <= 0.0044\nmse = 3.6533360986e-06\nsamples = 728", shape="box"] ;
1 -> 9 ;
10 [label="Storage <= 0.7529\nmse = 1.26615742231e-06\nsamples = 386", shape="box"] ;
9 -> 10 ;
11 [label="mse = 0.0000\nsamples = 352\nOutflow = [ 0.00326856]", shape="box"] ;
10 -> 11 ;
12 [label="mse = 0.0000\nsamples = 34\nOutflow = [ 0.00552484]", shape="box"] ;
10 -> 12 ;
13 [label="Inflow(7dayForecast) <= 0.0045\nmse = 3.10794930716e-06\nsamples = 342", shape="box"] ;
9 -> 13 ;
14 [label="mse = 0.0000\nsamples = 175\nOutflow = [ 0.00496149]", shape="box"] ;
13 -> 14 ;
15 [label="mse = 0.0000\nsamples = 167\nOutflow = [ 0.00696366]", shape="box"] ;
13 -> 15 ;
16 [label="Outflow(7day) <= 0.0150\nmse = 1.57233207082e-05\nsamples = 1223", shape="box"] ;
0 -> 16 ;
17 [label="Outflow(7day) <= 0.0114\nmse = 5.91282934679e-06\nsamples = 946", shape="box"] ;
16 -> 17 ;
18 [label="Inflow(28day) <= 0.0079\nmse = 3.16441883828e-06\nsamples = 392", shape="box"] ;
17 -> 18 ;
19 [label="mse = 0.0000\nsamples = 243\nOutflow = [ 0.00853812]", shape="box"] ;
18 -> 19 ;
20 [label="mse = 0.0000\nsamples = 149\nOutflow = [ 0.01072298]", shape="box"] ;
18 -> 20 ;
21 [label="Outflow(7day) <= 0.0135\nmse = 2.21776180621e-06\nsamples = 554", shape="box"] ;
17 -> 21 ;
22 [label="mse = 0.0000\nsamples = 348\nOutflow = [ 0.01234716]", shape="box"] ;
21 -> 22 ;
23 [label="mse = 0.0000\nsamples = 206\nOutflow = [ 0.01425831]", shape="box"] ;
21 -> 23 ;
24 [label="Outflow(7day) <= 0.0193\nmse = 1.06334576661e-05\nsamples = 277", shape="box"] ;
16 -> 24 ;
25 [label="Outflow(7day) <= 0.0166\nmse = 4.16831336548e-06\nsamples = 170", shape="box"] ;
24 -> 25 ;
26 [label="mse = 0.0000\nsamples = 86\nOutflow = [ 0.01576071]", shape="box"] ;
25 -> 26 ;
27 [label="mse = 0.0000\nsamples = 84\nOutflow = [ 0.01767183]", shape="box"] ;
25 -> 27 ;
28 [label="Inflow(7dayForecast) <= 0.0163\nmse = 6.24876292767e-06\nsamples = 107", shape="box"] ;
24 -> 28 ;
29 [label="mse = 0.0000\nsamples = 12\nOutflow = [ 0.01699322]", shape="box"] ;
28 -> 29 ;
30 [label="mse = 0.0000\nsamples = 95\nOutflow = [ 0.02217276]", shape="box"] ;
28 -> 30 ;
}