digraph Tree {
0 [label="Inflow(2month) <= 0.0064\nmse = 1.19676416723e-05\nsamples = 142", shape="box"] ;
1 [label="Inflow(2month) <= 0.0029\nmse = 1.880738801e-06\nsamples = 115", shape="box"] ;
0 -> 1 ;
2 [label="Storage <= 0.4404\nmse = 7.98612423108e-07\nsamples = 81", shape="box"] ;
1 -> 2 ;
3 [label="Inflow(2month) <= 0.0009\nmse = 3.1834354348e-07\nsamples = 66", shape="box"] ;
2 -> 3 ;
4 [label="mse = 0.0000\nsamples = 22\nOutflow = [ 0.00091194]", shape="box"] ;
3 -> 4 ;
5 [label="mse = 0.0000\nsamples = 44\nOutflow = [ 0.00175336]", shape="box"] ;
3 -> 5 ;
6 [label="Outflow(1month) <= 0.0022\nmse = 1.29812077886e-06\nsamples = 15", shape="box"] ;
2 -> 6 ;
7 [label="mse = 0.0000\nsamples = 5\nOutflow = [ 0.0018065]", shape="box"] ;
6 -> 7 ;
8 [label="mse = 0.0000\nsamples = 10\nOutflow = [ 0.00341699]", shape="box"] ;
6 -> 8 ;
9 [label="Inflow(2month) <= 0.0047\nmse = 1.27625275534e-06\nsamples = 34", shape="box"] ;
1 -> 9 ;
10 [label="Outflow(1month) <= 0.0020\nmse = 5.79240764975e-07\nsamples = 21", shape="box"] ;
9 -> 10 ;
11 [label="mse = 0.0000\nsamples = 5\nOutflow = [ 0.00246365]", shape="box"] ;
10 -> 11 ;
12 [label="mse = 0.0000\nsamples = 16\nOutflow = [ 0.00350388]", shape="box"] ;
10 -> 12 ;
13 [label="Outflow(1month) <= 0.0045\nmse = 8.66370080246e-07\nsamples = 13", shape="box"] ;
9 -> 13 ;
14 [label="mse = 0.0000\nsamples = 8\nOutflow = [ 0.00445249]", shape="box"] ;
13 -> 14 ;
15 [label="mse = 0.0000\nsamples = 5\nOutflow = [ 0.00544205]", shape="box"] ;
13 -> 15 ;
16 [label="Inflow <= 0.0143\nmse = 1.29661944004e-05\nsamples = 27", shape="box"] ;
0 -> 16 ;
17 [label="Inflow(2month) <= 0.0113\nmse = 4.77423433269e-06\nsamples = 22", shape="box"] ;
16 -> 17 ;
18 [label="Inflow <= 0.0037\nmse = 1.23467919433e-06\nsamples = 15", shape="box"] ;
17 -> 18 ;
19 [label="mse = 0.0000\nsamples = 5\nOutflow = [ 0.00623264]", shape="box"] ;
18 -> 19 ;
20 [label="mse = 0.0000\nsamples = 10\nOutflow = [ 0.0077378]", shape="box"] ;
18 -> 20 ;
21 [label="mse = 0.0000\nsamples = 7\nOutflow = [ 0.01098594]", shape="box"] ;
17 -> 21 ;
22 [label="mse = 0.0000\nsamples = 5\nOutflow = [ 0.01453717]", shape="box"] ;
16 -> 22 ;
}